/* Auto-generated by utensor cli */
#include <stdint.h>

const float data_conv_Variable_0 [ 192 ] = {  -0.11086772,  0.14069386,  -0.059429847,  0.09050281,  0.19664967,  0.28243276,  0.23104504,  0.28264287,  0.1604896,  0.019426508,  -0.15731914,  0.10620164,  0.2729828,  -0.29223084,  0.20710555,  0.27478215,  0.33826974,  -0.28922194,  -0.1251491,  -0.3726053,  0.010308828,  0.067360446,  -0.24169709,  -0.37439173,  -0.24686578,  0.056882758,  -0.4136861,  0.068239324,  0.006190279,  -0.20881912,  0.111557074,  -0.053484183,  -0.13047995,  0.10769653,  -0.058251526,  0.15832861,  0.06419574,  -0.36422002,  -0.22273675,  0.12517115,  0.34991753,  0.21652316,  -0.32789,  0.2586109,  0.0347929,  -0.3401231,  -0.09547668,  0.08585157,  -0.3701516,  -0.017832864,  -0.056068704,  0.26359358,  0.0025501645,  0.034275167,  -0.13811876,  -0.25931102,  0.0026649616,  0.014137686,  -0.40808338,  -0.18182878,  0.16329709,  0.18556379,  -0.19599037,  -0.12462251,  0.10021534,  0.000516845,  0.2052541,  0.07312981,  -0.501748,  -0.008883081,  -0.16391724,  0.0017498388,  0.19669396,  0.33111766,  -0.018398566,  -0.38887042,  0.12179905,  0.5138045,  0.2929473,  0.08793115,  -0.16283885,  0.0077031306,  -0.098095566,  0.46824944,  -0.41318414,  0.16939473,  0.020940214,  0.0035945165,  -0.15087508,  -0.06977951,  -0.15710792,  0.04863637,  -0.45800847,  0.11886102,  -0.3148626,  0.098102465,  -0.058248773,  0.3256383,  -0.0698838,  0.22214566,  0.36095887,  -0.02534375,  0.10969777,  0.40713212,  -0.09801961,  0.19325665,  0.39450926,  0.26391506,  0.29082066,  0.08602465,  0.082737714,  0.18704109,  0.27931172,  -0.3302369,  0.009048621,  0.14581415,  0.1873012,  -0.1342096,  -0.31160796,  -0.26844984,  0.021660239,  -0.30461618,  0.16653726,  0.2999307,  -0.06354476,  -0.3819194,  0.18933395,  0.089048944,  -0.010768693,  0.14270732,  -0.24318671,  -0.10173493,  0.00789604,  0.24848306,  -0.09676438,  -0.2609982,  -0.0024204254,  0.20381892,  0.33099827,  0.055154886,  -0.332574,  -0.052873865,  -0.21337172,  -0.04430303,  0.0971629,  0.37232545,  0.10062785,  -0.23636852,  -0.23098536,  -0.29219046,  -0.097362116,  0.19444157,  0.12238214,  -0.078947455,  0.26795673,  -0.31654972,  0.18012938,  -0.03591122,  0.085062385,  -0.288078,  0.09065803,  -0.26897812,  0.4967119,  -0.3413675,  0.050411697,  -0.12712625,  0.023096647,  0.12875271,  -0.35615617,  -0.25424492,  0.118117794,  -0.41250056,  0.085268244,  0.31835675,  0.015487956,  -0.24198012,  0.027980266,  0.2722608,  0.05662947,  -0.3600513,  0.055819392,  0.117915355,  0.23907548,  0.0987365,  -0.0018934882,  -0.010252137,  0.28440383,  0.08004106,  -0.36135888,  0.060179144,  -0.49193636,  -0.01627634,  };

const float data_conv_bias_0 [ 16 ] = {  -0.028159609,  -0.225644,  -0.07468389,  0.0069030174,  0.101667956,  0.02976994,  0.23122692,  -0.058565635,  0.020602873,  -0.19307669,  -0.005956731,  0.036330942,  -0.06863872,  0.010090536,  0.08062804,  -0.029479867,  };

const float data_conv_1_Variable_0 [ 4608 ] = {  0.06916058,  -0.051868577,  -0.040221334,  -0.064734265,  -0.11212371,  -0.22992209,  -0.07981699,  -0.34270677,  0.038679577,  0.0475283,  0.025921484,  -0.16649234,  0.03127782,  -0.1914344,  -0.080899045,  0.107098155,  -0.081211336,  0.18381952,  0.07058852,  0.064209156,  -0.22897547,  0.16143477,  -0.051871803,  0.13949612,  -0.030002663,  0.14830466,  -0.044586748,  -0.052992906,  -0.16681238,  0.10095259,  -0.04980455,  0.11347696,  0.2731815,  -0.0072557107,  -0.0054303333,  0.13007803,  -0.21777749,  0.3617975,  -0.06262382,  -0.06439746,  -0.051255085,  -0.16857366,  0.029122371,  -0.020444877,  -0.15446703,  -0.165575,  -0.14140879,  0.03855036,  0.093592845,  0.04770937,  -0.108826324,  0.05129516,  -0.20598753,  0.24393295,  -0.26425177,  0.17913762,  0.071716934,  0.11187585,  0.084210016,  0.07460934,  -0.11206734,  -0.11631461,  0.09739171,  -0.24000591,  0.19286211,  0.054510143,  -0.020881217,  0.030982997,  -0.09728512,  -0.14904529,  -0.01748243,  0.12372793,  -0.061962325,  0.027104761,  -0.030492315,  0.040867954,  -0.07660147,  -0.24802081,  0.035617925,  -0.13539119,  0.12631929,  0.016515939,  0.01542878,  0.0094282655,  -0.061621465,  0.12180842,  -0.12549391,  -0.101261884,  0.09520855,  0.015763462,  -0.031437896,  0.12463665,  0.22896011,  -0.21804558,  0.055649187,  0.09769139,  -0.05219094,  0.0742402,  0.0025932607,  0.001646087,  0.26818493,  0.15009335,  -0.1003422,  0.32080016,  0.10809896,  -0.05903118,  0.11811849,  -0.05310327,  0.012727274,  0.30584186,  0.09888664,  -0.095385134,  -0.12352439,  0.18388452,  -0.065850176,  -0.050098732,  0.11413596,  -0.12637419,  -0.26226938,  0.050399162,  0.28462878,  0.063453704,  -0.029226735,  -0.16923337,  -0.0891798,  -0.29057896,  0.08500362,  -0.045898795,  -0.027903792,  -0.26718768,  0.02274848,  0.010494573,  0.03532446,  0.001103865,  -0.086794205,  -0.21268865,  -0.008775581,  -0.07340564,  0.081732884,  0.023039518,  0.052452512,  0.03601931,  0.058404535,  -0.0592754,  -0.013906727,  -0.2514808,  0.06440969,  0.23005047,  -0.059058756,  0.11121809,  0.048624475,  -0.08980134,  -0.08767529,  -0.057090208,  0.052545935,  -0.21409358,  -0.22543038,  -0.25986174,  -0.3068991,  0.0021867468,  -0.14089999,  0.06388303,  0.057098277,  -0.043408405,  -0.04424894,  -0.19141062,  0.10225501,  0.09433554,  -0.028048601,  0.034372862,  0.017023085,  0.14205545,  0.0764181,  0.09082364,  0.070873685,  -0.090609975,  0.08238062,  -0.3318435,  -0.054953773,  -0.08883792,  0.109371,  -0.052773524,  0.24618594,  -0.05410375,  0.1029046,  -0.081088744,  0.0145045575,  -0.10554996,  0.08700432,  0.045438092,  -0.04450953,  0.1666711,  -0.09575591,  0.2892386,  -0.019431634,  0.08886527,  0.33551368,  0.16374288,  -0.028342238,  -0.098313935,  -0.039230626,  -0.055064123,  -0.027424105,  0.18274659,  0.115970775,  -0.09562439,  0.045838643,  0.0033529848,  -0.010131134,  -0.17581563,  -0.004174313,  -0.038550552,  0.25176817,  -0.31181422,  0.36244693,  -0.18895346,  0.039987326,  -0.024106165,  0.14141792,  0.14144461,  0.21854718,  -0.050259322,  -0.012735403,  -0.036967847,  0.03195734,  -0.030918632,  0.032940935,  0.08004297,  -0.06919805,  0.24599098,  -0.059603024,  -0.11183464,  -0.031279366,  -0.09115506,  -0.020711306,  0.13945888,  -0.033878878,  -0.12637825,  -0.085797235,  -0.08273708,  0.069543205,  -0.026823783,  0.0052955193,  0.20494337,  0.042082194,  -0.1110839,  0.050849494,  -0.07788594,  0.0017659679,  0.049736105,  -0.07122643,  -0.058305353,  -0.07578591,  -0.23288715,  0.038582176,  -0.20790926,  -0.21358684,  0.02531758,  0.06712691,  -0.10594905,  0.21260479,  0.2450853,  0.20893203,  0.12030534,  0.044093914,  0.02242517,  0.051543478,  0.063280694,  0.043017685,  0.030057197,  0.09116074,  0.056401733,  0.054706316,  0.05500735,  -0.03980953,  -0.0014739956,  0.18546388,  -0.06277065,  0.1932233,  0.012971789,  -0.104770154,  -0.008487854,  0.06702404,  -0.16489923,  0.04595761,  0.083263464,  0.0889458,  -0.22261097,  -0.094248936,  0.12808336,  0.022620678,  0.10337406,  0.14176767,  0.10163477,  0.08478019,  0.1452219,  0.03476556,  0.047476336,  -0.007958749,  -0.063127264,  0.0207162,  -0.054294325,  -0.075394735,  0.13369648,  0.11924129,  0.15548852,  -0.048699588,  0.11194481,  -0.08795464,  0.13796404,  -0.21057533,  0.24878098,  -0.09352633,  0.014708223,  0.123340085,  0.10411594,  -0.07673753,  0.05930081,  0.29962015,  0.049547363,  0.30952182,  -0.049997337,  -0.017370278,  -0.02580418,  -0.33664134,  0.056198876,  -0.47156695,  -0.27618995,  -0.10666288,  -0.103255995,  0.035452735,  -0.09629971,  0.09322224,  -0.3680026,  -0.29637602,  -0.018831976,  0.011739498,  -0.023190828,  0.20324856,  -0.30767113,  -0.120769955,  -0.03950679,  0.10474508,  -0.005812141,  0.20302552,  0.27856997,  0.13239342,  -0.07835864,  0.08005005,  -0.023014884,  -0.2853292,  -0.08600313,  -0.027393062,  0.066760525,  -0.036153927,  0.0088584535,  0.35178506,  -0.06615805,  -0.039468132,  0.052657805,  0.09903747,  -0.00969056,  0.12525947,  0.10695477,  0.037312344,  0.10362137,  -0.13136144,  0.010119235,  -0.013696384,  0.04884664,  -0.037848517,  -0.12937106,  0.024756934,  0.056767754,  -0.030992147,  0.0019926168,  -0.15115999,  -0.07437016,  0.094081074,  -0.08210394,  -0.16964996,  0.07732241,  -0.020050684,  -0.04334839,  -0.18118843,  0.06071022,  -0.10575741,  0.015728295,  0.2075402,  0.19307597,  -0.085646026,  0.19708289,  0.078305475,  -0.015815282,  -0.17789735,  0.020662144,  -0.056881975,  0.114065066,  0.11191525,  -0.032458372,  0.057605047,  0.10360107,  -0.0073659737,  0.2910812,  0.020229446,  0.027203608,  0.10423839,  -0.0975318,  0.13653338,  0.07002823,  0.045161366,  -0.08872552,  0.04339671,  -0.06780851,  0.13716538,  -0.09089952,  -0.027753364,  0.30748558,  0.14886145,  -0.07226648,  -0.4091048,  0.10888641,  0.033769052,  0.24011956,  -0.07370482,  0.031787682,  0.09615614,  0.07725358,  -0.0040357425,  -0.054798264,  -0.02319806,  0.061245494,  -0.096843556,  -0.028062984,  -0.055159044,  -0.1753424,  0.32298082,  -0.20539916,  -0.12650877,  -0.103222914,  0.24172671,  -0.17432627,  -0.12029488,  0.11601707,  0.48615992,  -0.10804346,  0.020595053,  0.021546043,  -0.11054367,  0.09678107,  -0.09029857,  -0.02043553,  0.35719025,  0.105424225,  -0.048735615,  -0.14302056,  0.007832241,  -0.09984337,  0.018053848,  0.1103794,  0.019265229,  0.015403123,  0.19936295,  0.08822981,  0.097443335,  0.14763124,  0.076784305,  0.13206322,  0.0023871055,  -0.06533134,  0.23216386,  -0.09251661,  0.029484468,  0.07500218,  -0.05748757,  -0.054254457,  -0.09926034,  -0.08578136,  -0.1275847,  0.12697539,  0.02852766,  0.011440498,  0.06612183,  0.035382647,  0.11828969,  0.029808396,  -0.030437017,  0.072899014,  0.026702464,  0.009813644,  0.08408721,  0.01892389,  -0.25660214,  0.01773922,  0.02180437,  -0.17766544,  0.031124208,  0.006264275,  -0.0061001536,  -0.008978971,  -0.118919365,  0.10021902,  -0.19639371,  0.09333922,  0.009802383,  0.09512172,  -0.034358364,  -0.0011193692,  0.011041838,  0.032969896,  -0.02202766,  0.018644493,  -0.124791905,  -0.04850892,  -0.023895148,  0.0045816395,  0.015628096,  -0.09962414,  -0.0039080074,  -0.052665543,  0.06557317,  0.11259253,  -0.024761572,  -0.1089855,  -0.11149205,  0.15676017,  0.08973929,  0.008695087,  -0.11492734,  -0.08688445,  0.020092027,  -0.20389912,  -0.000997185,  0.0002048784,  0.021720001,  0.03281477,  -0.38022217,  0.10089114,  -0.19121067,  0.058153752,  0.19393153,  0.1472873,  -0.09749087,  0.14841387,  -0.05138223,  -0.032954145,  0.06823301,  0.027199525,  -0.12196853,  0.3717724,  -0.103511766,  0.09302486,  0.048557606,  -0.13460037,  -0.03310272,  -0.0009276846,  -0.20955275,  -0.12370178,  0.015081688,  0.17938896,  -0.10486702,  -0.1059113,  -0.13073766,  0.13421588,  0.14183518,  -0.03046755,  0.036396805,  0.080057375,  -0.047002677,  0.0074961577,  0.14609747,  -0.08696962,  -0.033736542,  0.23508093,  0.14139284,  -0.25039735,  -0.16587906,  0.1298591,  -0.05568638,  0.028099373,  -0.0144201815,  0.07128755,  -0.0375176,  0.036770947,  0.17130637,  -0.002030601,  -0.011975904,  -0.08416092,  -0.1455332,  0.059948914,  0.080076195,  -0.003883618,  0.16710593,  0.096381135,  -0.098369874,  0.19626535,  0.021585207,  -0.024646051,  0.040327583,  0.017324317,  0.16668876,  -0.030127427,  -0.1833548,  -0.30116203,  -0.07111916,  -0.158697,  -0.034091964,  0.026568213,  0.2696292,  0.001098945,  0.0040946533,  -0.010318372,  -0.22685754,  0.10001778,  -0.091678776,  -0.13105403,  -0.023981255,  -0.04675954,  0.006296033,  0.018572204,  -0.08636032,  -0.48620003,  0.010442507,  0.033103704,  -0.12057547,  0.2602436,  -0.10976051,  -0.08652338,  -0.03593812,  -0.012586073,  -0.3368647,  -0.0754707,  0.18596432,  0.008031542,  0.1775407,  -0.043054692,  0.012181494,  -0.05885679,  -0.007685028,  -0.14270686,  -0.13076928,  -0.28912067,  -0.087183975,  0.03746116,  0.01759389,  0.023390774,  -0.10574591,  0.1252768,  -0.10102544,  0.011928303,  0.12747812,  0.1049122,  0.007955112,  -0.056118954,  0.09186555,  0.034878984,  -0.13469099,  -0.020119179,  -0.036902227,  -0.09057097,  -0.0432624,  -0.05262316,  -0.0122144,  -0.10536318,  -0.07902426,  0.006490212,  -0.04576389,  0.11855613,  0.09317838,  -0.13664311,  0.06389392,  0.0048486562,  -0.015943909,  -0.08817322,  0.085678756,  0.05474334,  0.087290786,  -0.096621946,  0.064895265,  0.030238226,  -0.17432469,  -0.09249609,  0.003211288,  -0.00594915,  0.10063065,  0.005091619,  -0.06574478,  0.024697576,  0.12742153,  -0.21127036,  0.005544397,  -0.14723094,  -0.088444225,  0.03170083,  -0.06839044,  0.062368695,  0.0413271,  -0.11058946,  0.10035538,  0.04830017,  -0.011198432,  0.061054267,  -0.08694341,  0.030248418,  -0.13284963,  0.15201026,  0.0033824365,  -0.12873505,  0.08294787,  0.20809868,  -0.1532073,  0.25206724,  0.15086704,  -0.07083893,  -0.004307312,  0.268534,  0.3885511,  0.038221464,  0.16617231,  0.088253446,  0.09676346,  -0.03102727,  -0.14689623,  0.071125016,  0.08647108,  0.04998628,  0.4553738,  -0.15437369,  0.14573118,  0.05338464,  0.16239583,  0.13773875,  -0.1044936,  -0.11591636,  -0.055438682,  -0.02861907,  0.0008469403,  0.036445685,  0.031038871,  0.08036425,  0.13043393,  0.30007055,  -0.15255912,  0.13087484,  -0.0652954,  0.07726873,  -0.042672016,  -0.08188845,  0.023254434,  0.11593078,  0.17351447,  0.075397275,  -0.068198,  0.29077896,  -0.002193314,  0.119369924,  0.13182124,  0.0659651,  0.1606628,  -0.09605526,  -0.06352763,  -0.010365784,  0.11810792,  -0.16169117,  -0.08746986,  0.023430105,  0.12694761,  -0.14045903,  -0.06338832,  0.06577255,  -0.08275265,  -0.12622163,  0.04578966,  0.062892765,  -0.17655927,  0.10585425,  -0.024274485,  -0.098378494,  0.044012237,  -0.004886141,  0.24497499,  0.06297381,  -0.0012339351,  0.034883883,  -0.05391129,  -0.15207918,  0.13007769,  -0.28681728,  0.13747942,  0.059891872,  -0.05289276,  -0.039401133,  0.22152786,  -0.26693508,  0.108357616,  0.119049616,  0.15362798,  0.016154636,  0.049017884,  0.039639022,  0.2046861,  0.1687837,  0.07254945,  0.060860142,  -0.03730222,  0.2511817,  -0.072613284,  0.13127129,  -0.12954913,  -0.08341993,  -0.0012447534,  0.05001089,  -0.09594756,  -0.116898336,  0.085230954,  0.090541735,  0.15089822,  0.022754988,  0.00048452942,  -0.058383685,  -0.05572924,  0.020602608,  -0.16685443,  0.12085422,  0.060606968,  -0.035684768,  0.25760847,  0.035161603,  0.091833316,  0.16786583,  0.16166417,  0.008343935,  -0.06496345,  -0.19075564,  -0.0035549055,  -0.11351322,  0.15372665,  0.11657729,  -0.57206786,  -0.16500685,  -0.12009458,  -0.06447314,  -0.19732997,  -0.042253014,  0.041451078,  -0.073746346,  -0.16488194,  -0.06438134,  0.058721248,  0.06992135,  0.05949858,  -0.24260868,  -0.05184107,  -0.037816815,  0.24340367,  -0.1518412,  -0.16325364,  0.40355977,  0.16313984,  0.025017189,  0.0087267,  -0.031254858,  -0.14267103,  -0.01871314,  0.24258171,  -0.0750482,  -0.036719207,  -0.030135334,  -0.19612688,  0.06321745,  -0.17262042,  0.21214661,  0.090817206,  0.039960913,  -0.0031225418,  0.0221691,  -0.012478184,  -0.14904006,  -0.044392046,  -0.03536382,  0.004790698,  -0.01991104,  0.035609372,  -0.39458355,  -0.019605478,  0.18654443,  -0.07408109,  0.11645897,  -0.17068925,  0.05000154,  -0.025799204,  0.22384323,  0.25224993,  0.13773179,  -0.12316166,  0.13286275,  -0.17329124,  -0.056956347,  -0.008563582,  -0.05228011,  0.02901581,  0.117284544,  -0.19824363,  0.0825733,  0.09651603,  0.018202752,  -0.1652785,  -0.07939915,  0.17999029,  0.012327973,  0.1349011,  0.08977797,  -0.078324996,  0.085986406,  -0.10204716,  0.32724538,  0.09149871,  0.017627629,  -0.029042367,  -0.023791369,  -0.0023688036,  0.027797077,  0.11369787,  0.03876018,  0.045099918,  -0.090161644,  0.053889293,  -0.086054735,  0.034163468,  0.3269868,  0.10153628,  0.017776266,  0.14567713,  0.15545674,  0.15797411,  -0.31609705,  0.103229225,  -0.12248673,  -0.015371707,  -0.05600492,  0.1759904,  -0.16636217,  -0.13732259,  0.114583224,  -0.020960959,  -0.055825707,  -0.13790685,  0.31075978,  -0.067417786,  -0.027008586,  0.16761786,  -0.10606571,  0.26884383,  0.049093865,  0.18558855,  -0.17688844,  -0.34699294,  0.13967621,  -0.17569737,  0.10815814,  -0.14681102,  -0.073691845,  -0.018182743,  -0.0064456435,  0.092714064,  0.0003851005,  -0.17003387,  0.108621515,  -0.043923073,  0.025285512,  -0.04426429,  -0.035562415,  0.23595679,  -0.024663959,  0.21860676,  0.11439926,  -0.079316646,  0.20480512,  0.039413154,  0.17902914,  -0.009788735,  -0.051122256,  0.11391445,  -0.076763846,  0.021052226,  0.13814186,  -0.0019875923,  0.017346352,  0.051619787,  -0.042425543,  -0.12001907,  0.07883898,  0.1558315,  -0.034676913,  -0.07218107,  -0.02410651,  -0.20283489,  0.08217553,  0.008412981,  0.062322006,  -0.0936176,  -0.09801451,  0.047591105,  0.00061730156,  -0.3077342,  -0.1687771,  0.008848004,  0.020230426,  -0.0835396,  -0.068144344,  0.14908956,  -0.067728624,  0.10020152,  -0.054464173,  -0.36075056,  0.09461586,  -0.015426472,  -0.030545326,  0.11674264,  -0.046101384,  0.09919863,  -0.16418166,  0.10974649,  -0.0011699722,  -0.2845672,  0.14351511,  -0.04673617,  0.01820657,  -0.04614941,  0.21358496,  0.129194,  0.056026034,  -0.05735217,  0.04663051,  -0.124909684,  -0.19127712,  -0.19765796,  0.08475817,  -0.014012762,  -0.06262998,  -0.072535194,  0.007181656,  -0.16469727,  -0.08889372,  0.1536431,  -0.049529236,  0.029273335,  -0.084757715,  0.08120168,  0.0048415074,  0.08916388,  0.037014503,  -0.1606037,  0.059104104,  -0.16303413,  0.06362924,  -0.13539818,  -0.04409006,  0.04434857,  -0.077063724,  0.15842088,  0.018993607,  -0.10347745,  -0.04250152,  -0.036823664,  -0.087843105,  -0.02378189,  -0.014761937,  -0.25481328,  0.056108125,  -0.096893966,  0.25587714,  -0.07060164,  0.09199408,  -0.18388198,  0.009236121,  -0.047576018,  -0.17399308,  0.18877548,  0.0031141667,  0.03665975,  0.036494836,  0.21465448,  -0.2670077,  -0.11968496,  0.18300687,  0.15086348,  -0.308006,  -0.2814578,  -0.015005527,  0.0044204993,  0.056335308,  0.15120472,  0.047723353,  -0.20470667,  -0.15758577,  -0.06615165,  0.08729477,  0.020135835,  -0.05883169,  -0.089887865,  -0.06712846,  -0.08871569,  -0.04923947,  0.13261914,  0.112266056,  0.016969722,  0.07421568,  0.16187398,  -0.115015216,  0.16820356,  -0.048278723,  -0.07947737,  0.08075525,  -0.07465377,  -0.0687205,  -0.18814929,  -0.060375057,  -0.08566452,  0.027956432,  0.31122968,  -0.3790792,  -0.1288595,  -0.11967991,  -0.066260345,  -0.050275464,  0.05652614,  -0.376345,  0.13701348,  -0.07067205,  0.051262487,  0.08032677,  0.13835983,  -0.022394743,  -0.09696835,  0.13256146,  -0.19034328,  0.2564889,  0.06966101,  0.063296266,  -0.14614123,  0.043190744,  -0.085879095,  0.12831973,  -0.27767816,  0.2587335,  -0.06125131,  -0.12844044,  -0.016400563,  -0.23639576,  0.20925626,  -0.083142854,  0.19788185,  -0.08779213,  -0.08932419,  0.03417413,  -0.0689515,  -0.117284656,  -0.003632992,  0.15932976,  -0.06697419,  0.103002004,  -0.023934059,  0.0919927,  0.10336631,  0.11563628,  0.123370424,  -0.0038332073,  -0.06870037,  -0.123250686,  -0.10665993,  0.124699846,  -0.0064830426,  0.09930191,  -0.06360821,  -0.2103452,  -0.013808827,  -0.0700829,  0.015993966,  0.13943137,  0.1812546,  -0.21063586,  -0.06720069,  -0.08577704,  0.16142888,  -0.16860014,  0.030833196,  0.15233275,  -0.0873078,  -0.10202092,  0.19700313,  0.09900856,  0.17411825,  -0.042985946,  -0.057152275,  0.11893958,  0.07101836,  0.048722025,  -0.108576305,  -0.0006060556,  0.0007966622,  -0.13589086,  -0.0016502736,  -0.040278792,  -0.105470695,  0.031075388,  -0.03476509,  0.04153131,  -0.18088116,  -0.04814913,  -0.018378695,  0.1241471,  0.09997615,  -0.03168882,  -0.22220337,  0.083394386,  -0.019278035,  0.009682614,  0.11883807,  -0.059489664,  -0.08298248,  -0.091770284,  -0.2073286,  0.14296171,  -0.082737565,  0.03766362,  -0.123887084,  0.083801515,  0.28931594,  0.042860743,  0.111084685,  0.13883196,  0.10580716,  -0.05703746,  -0.020908993,  -0.12930101,  -0.26483548,  0.36472887,  -0.0051351585,  -0.062359527,  0.07799205,  0.087420836,  0.18118675,  0.06547324,  0.052875,  0.055806633,  0.07890874,  0.046924938,  -0.1473166,  0.003692243,  -0.018408688,  -0.1482139,  0.0037776802,  -0.11025201,  -0.22634995,  0.064035274,  0.02715756,  0.019445743,  0.029546386,  -0.098973826,  0.12187919,  0.08532107,  0.007842199,  0.18930858,  0.11956285,  0.14895748,  0.101100944,  0.08267042,  -0.034768924,  0.007875638,  0.07299553,  -0.20827731,  0.09848699,  0.06528969,  0.23793891,  -0.17151918,  0.061684128,  0.007810419,  0.035923492,  -0.04691769,  0.36105707,  -0.16242947,  0.036500342,  0.110486336,  -0.2531578,  -0.16232207,  0.045521274,  -0.09071173,  -0.091459,  -0.2160217,  -0.10097906,  0.14467064,  0.18436547,  -0.10983483,  -0.06531018,  -0.09178523,  -0.03147018,  -0.059136543,  0.056219034,  -0.043750457,  -0.21208297,  0.072003804,  -0.14183076,  -0.074501425,  0.16928396,  -0.054831803,  0.07823223,  0.0008482337,  0.1178658,  -0.046663087,  0.022328412,  0.078991786,  0.09164413,  0.2580801,  0.0116128465,  0.10346902,  -0.10659513,  0.081606455,  -0.08593863,  0.056705,  0.16329661,  -0.022782722,  -0.17500135,  -0.056363795,  -0.095956296,  -0.08238458,  0.07222171,  0.06501281,  -0.06317952,  0.10066858,  0.11754822,  0.18708678,  0.026457435,  -0.06729882,  0.005855879,  0.1368988,  0.01496803,  0.012038638,  0.13201441,  -0.0025611406,  0.12155776,  0.08951987,  0.115403995,  0.016415589,  -0.28517818,  -0.013725707,  0.019018147,  0.022746405,  0.28357774,  0.1146308,  -0.69462687,  0.5688059,  0.012067441,  -0.032253224,  -0.028085487,  -0.059881896,  0.05608594,  0.49188942,  0.05882264,  0.024029896,  -0.015269369,  0.17587721,  0.033075735,  -0.5129597,  0.07496394,  -0.05736442,  0.24231724,  -0.24248317,  0.015993332,  0.27391857,  0.045623872,  -0.014301977,  0.008517995,  0.025158864,  0.008471091,  -0.1033658,  0.45062375,  -0.014184201,  -0.058797333,  -0.03548585,  -0.052844398,  0.152167,  0.37416032,  0.06155201,  0.007944007,  0.08944198,  -0.08314807,  0.09085222,  0.0408082,  0.1444373,  0.047323074,  0.03719811,  -0.012072389,  0.11604119,  0.12657642,  -0.20519055,  -0.0058372193,  0.15579697,  -0.10642662,  0.05864764,  0.06472668,  -0.09628043,  0.11391963,  0.09351989,  0.111131296,  0.20077635,  -0.15832849,  -0.08575123,  0.16857274,  -0.19734643,  -0.0876186,  -0.09296532,  0.00251318,  -0.031436186,  -0.09618603,  0.08794454,  -0.06283028,  0.04720449,  -0.04978165,  -0.05116448,  0.15707484,  -0.08933077,  0.089151874,  0.041467663,  -0.03526763,  0.036288004,  0.07676399,  0.4614658,  -0.05674973,  0.10621958,  -0.13677406,  -0.035362232,  0.07501988,  -0.030271994,  0.01630068,  -0.044294827,  0.034132287,  0.06285165,  0.010970326,  0.022980265,  -0.26830685,  -0.24128023,  0.040976066,  0.028198186,  0.36301345,  0.06757313,  -0.39077234,  -0.038807552,  0.08618293,  0.0443473,  0.09986134,  -0.10722023,  0.1616836,  -0.06937355,  -0.11079583,  0.0999959,  -0.09842154,  -0.025924653,  0.052675672,  0.12123879,  -0.15682119,  -0.074007325,  0.23118731,  -0.037516825,  -0.22129923,  0.1865219,  -0.10135262,  -0.061535537,  -0.16061479,  0.08680749,  -0.011954778,  -0.023889879,  0.16294497,  -0.031745482,  0.02551656,  -0.07472306,  -0.0032584898,  -0.01309099,  0.042137403,  0.033825688,  0.05539102,  0.16151765,  0.022839088,  -0.042801052,  0.27623576,  -0.089848466,  0.22255681,  0.12992346,  -0.15765211,  0.06019428,  -0.033956762,  0.1044873,  -0.16691431,  0.24502802,  -0.021561513,  -0.054473054,  -0.060368564,  -0.00050469674,  0.014494159,  0.17105222,  0.20900051,  -0.0050654695,  -0.0025694666,  -0.058673106,  0.12484902,  0.011547914,  -0.028009228,  -0.009747491,  -0.07317126,  0.17817213,  0.1751338,  -0.10118499,  -0.08441286,  0.026370138,  -0.080302276,  -0.046640374,  -0.3077527,  -0.069815755,  -0.004602359,  0.15745246,  0.08113391,  0.13568813,  -0.0016478875,  -0.0040101344,  0.08907921,  -0.033546597,  -0.036332782,  0.18494225,  0.03373643,  -0.019594816,  0.09883063,  -0.061044823,  -0.081831835,  0.046611633,  -0.014547563,  -0.053886056,  0.041486967,  0.0066317106,  0.06443655,  0.087517895,  0.038250852,  -0.40065306,  -0.0048210872,  -0.083312996,  -0.03620955,  0.098780476,  0.006303638,  -0.16486222,  0.018335938,  0.09634628,  -0.06864527,  -0.03163655,  0.19862202,  -0.009362501,  0.05837381,  -0.08903661,  -0.17506807,  0.15192933,  -0.085875146,  0.1521,  0.24244654,  0.11908877,  -0.2692878,  0.021286184,  -0.10388602,  -0.2212345,  -0.18800144,  0.2783498,  -0.040368285,  -0.13814522,  -0.011259885,  0.13228735,  -0.21955982,  0.19662794,  0.06821742,  0.09597303,  -0.060937375,  -0.2737792,  0.013657712,  0.029396337,  -0.048136786,  -0.071490884,  -0.1654223,  -0.098443955,  -0.048978657,  -0.01100302,  -0.19618648,  0.009009286,  -0.17382988,  0.18748488,  -0.08131233,  0.04498785,  0.062937826,  0.11499357,  0.23119862,  0.1231781,  0.011047009,  -0.03884219,  -0.11328151,  -0.17997469,  0.08079299,  -0.12232254,  0.06512753,  -0.09407111,  -0.1461015,  -0.07597307,  -0.03905924,  -0.0611431,  0.047040325,  -0.15936556,  -0.049080018,  -0.050909325,  -0.018210176,  -0.058807865,  0.03268353,  0.06390621,  0.2221422,  0.23747867,  0.055110417,  -0.09188634,  -0.053191356,  0.022760842,  0.10967286,  0.014728936,  -0.15650411,  0.0985512,  -0.13420482,  0.24135897,  0.08465526,  -0.1572299,  0.044155885,  -0.009084529,  0.14101072,  -0.066916235,  0.060459804,  0.011553466,  -0.08366157,  0.1661166,  -0.038467303,  0.12958479,  -0.14921346,  -0.098206945,  0.021536924,  0.029876208,  -0.06898492,  -0.21851274,  -0.07011959,  0.00365335,  -0.16829576,  -0.14322168,  0.09040981,  0.02244113,  0.12029063,  -0.028738225,  -0.13770214,  -0.09241313,  -0.17482984,  -0.2417708,  -0.057368353,  -0.13064697,  -0.15768665,  -0.044533927,  0.1334391,  -0.20829763,  -0.21106175,  0.14734702,  -0.048164815,  -0.13716327,  0.13060065,  0.15135705,  0.11237359,  0.04495932,  -0.03337494,  -0.23719767,  -0.1563871,  0.011263969,  0.01025917,  0.08064463,  -0.07838569,  -0.041483283,  0.008936529,  -0.029863497,  0.019642336,  0.023558484,  -0.07900478,  -0.140224,  0.013401902,  -0.013339731,  0.17104045,  0.043056414,  -0.11929358,  -0.27030602,  -0.3615278,  -0.11216171,  -0.2356513,  -0.14011687,  -0.07196718,  0.07880071,  0.047626097,  0.17608029,  -0.05923704,  0.052696295,  -0.11928604,  0.107206576,  -0.036517527,  -0.03922937,  -0.1087346,  0.017928232,  -0.012655554,  -0.035969254,  0.0393378,  -0.04169445,  -0.035651837,  -0.28305733,  -0.037075356,  0.0594465,  0.023569854,  -0.10009864,  0.020647567,  -0.047045752,  0.01866013,  -0.24026053,  -0.02054071,  -0.08990036,  0.0570151,  -0.13504952,  0.10003149,  -0.13632481,  -0.05049447,  0.09282408,  0.025644068,  0.00028934854,  0.17795089,  0.22229919,  0.11485448,  0.19255015,  0.16773053,  -0.06630199,  -0.16852807,  0.22597371,  0.122539036,  -0.024844024,  0.2532294,  0.054506518,  0.062307052,  -0.07664079,  -0.06270419,  0.22418685,  0.2691249,  -0.22487186,  0.2290759,  -0.087570995,  0.047282696,  -0.017192015,  0.16057153,  -0.032915145,  0.08380994,  0.07341244,  0.039783105,  0.07441021,  -0.024420463,  0.14110507,  0.007812128,  -0.11097453,  0.13173766,  0.20360138,  0.04604227,  -0.022239031,  -0.079453655,  -0.2013014,  -0.21436231,  0.036689237,  0.05347285,  0.053147316,  -0.20778199,  -0.16567148,  0.029164115,  -0.04875869,  0.02481637,  -0.064431585,  -0.028873192,  -0.11822548,  0.15810525,  0.0066516744,  -0.0053004874,  0.05335411,  -0.13783574,  0.1329396,  0.013597797,  0.0057108803,  0.022207139,  -0.013994345,  0.025027597,  -0.07870406,  -0.02770265,  -0.013729708,  0.122472435,  0.32146356,  0.10055887,  0.1454537,  -0.13194689,  0.13017777,  0.061351698,  -0.020745749,  -0.11033136,  -0.06702895,  0.051666386,  0.090066165,  -0.2079359,  0.06511158,  -0.049146313,  0.06689144,  0.15644749,  -0.18811922,  -0.061931144,  -0.0013570848,  -0.12742911,  -0.10799519,  -0.028994061,  -0.06106939,  -0.09635968,  0.03185695,  -0.045463838,  0.004132856,  0.17152983,  -0.04429028,  0.08298995,  0.08206607,  0.05020332,  -0.057471924,  -0.08132121,  0.0732093,  0.03587807,  0.12416536,  0.009931104,  0.088953085,  -0.03794382,  -0.06672477,  0.09367893,  -0.055645425,  0.10101393,  0.16785878,  0.017995467,  -0.059153765,  -0.05237871,  0.16141166,  -0.0023154286,  0.19772914,  0.027643073,  0.02789708,  -0.036196843,  -0.0068797744,  0.05200681,  -0.055511776,  0.08344521,  -0.040991783,  -0.04417421,  0.18167573,  -0.1330836,  0.017198313,  -0.27199095,  0.22608712,  0.7145182,  -0.15010157,  0.121682025,  0.026033577,  0.044319496,  -0.035338737,  0.2174122,  0.2204567,  -0.12977494,  0.04699786,  0.03869019,  -0.24018279,  -0.08747623,  -0.017583761,  -0.13489051,  -0.07082149,  0.16426368,  0.082711406,  0.46284473,  0.007806154,  -0.01187947,  0.17148204,  0.10571907,  0.046315137,  -0.08437257,  0.0017932812,  -0.048566807,  0.12861253,  0.06864596,  0.12431157,  0.15452388,  -0.0540531,  -0.027699852,  0.26640224,  -0.09604636,  0.042593446,  -0.006196389,  0.07103486,  0.013918487,  -0.007923734,  0.052263435,  0.016218804,  0.17696723,  -0.11701347,  -0.0738241,  0.23874904,  -0.062376484,  0.1446743,  -0.07440206,  0.040204346,  0.34219223,  -0.058939926,  0.1124814,  -0.17465478,  -0.13752466,  0.04470351,  -0.1319467,  0.05327276,  -0.015689144,  0.07611071,  0.15631108,  -0.118545756,  0.12943298,  0.14997354,  -0.11108317,  0.1443552,  0.023086468,  -0.26353052,  -0.29745564,  0.036604505,  -0.0042883325,  0.06281028,  -0.0074582985,  0.13363788,  0.033394143,  0.118038684,  0.08238576,  -0.020873502,  0.013108665,  -0.1398588,  0.022905063,  0.04846671,  -0.13774467,  0.10214123,  -0.043139514,  -0.06496284,  -0.07852092,  0.16522643,  0.13817583,  -0.020438645,  0.043870762,  0.043652985,  -0.010283047,  -0.058368336,  -0.39977968,  -0.035571784,  -0.03837355,  -0.10300177,  0.015915858,  -0.10862951,  -0.0602174,  0.11878536,  -0.06685564,  -0.080341816,  0.109993614,  -0.061802313,  -0.122823216,  0.042176183,  0.16758311,  -0.1223786,  0.3061871,  -0.110499166,  0.07699135,  -0.18737637,  -0.2055547,  0.08680582,  -0.17290601,  0.16506049,  0.42197114,  -0.1790252,  0.19857587,  0.0012894485,  -0.08245211,  0.2723372,  0.035359483,  -0.04423889,  0.20594382,  -0.013357814,  0.028001694,  0.10151962,  -0.04391512,  0.01259613,  -0.10236985,  -0.07342128,  -0.011339073,  0.07782464,  0.07376565,  -0.03853813,  0.011049738,  0.16665974,  0.09656999,  0.04128383,  0.13386312,  -0.21540564,  0.09760152,  -0.13956992,  0.03882652,  0.020247623,  -0.09897403,  -0.08772526,  -0.056396414,  -0.020195331,  0.0058462024,  -0.018113967,  0.12514077,  -0.12634097,  -0.13959023,  0.052488044,  0.033548873,  -0.1858972,  -0.15522785,  0.0510628,  -0.13934308,  0.121952385,  -0.04116325,  0.00035090087,  0.0025487365,  0.014085752,  0.008506589,  -0.13855523,  -0.10934476,  -0.115489915,  0.18174465,  -0.0795711,  -0.23102298,  0.22645533,  -0.19584024,  0.16487458,  0.030676244,  -0.04820965,  -0.09830925,  -0.20721053,  -0.18965182,  -0.15247247,  -0.21928689,  0.10103527,  -0.017603928,  -0.085725196,  0.0031189234,  0.08504446,  -0.077521585,  -0.3471915,  0.07381584,  -0.10659282,  0.036313403,  0.13115375,  0.10250088,  -0.05744367,  0.071931966,  -0.04240593,  -0.170411,  -0.1828854,  0.11456915,  -0.023242785,  0.050322305,  0.041955423,  -0.090151526,  0.0986512,  -0.09286783,  0.12539196,  -0.1391136,  0.16547023,  -0.23762847,  0.1767916,  -0.014145831,  -0.34286976,  -0.09078412,  0.20550567,  -0.1627498,  0.01984985,  -0.054005004,  0.06958759,  0.060057625,  0.16535099,  0.004622889,  -0.008440079,  0.06278702,  -0.12953207,  0.041347113,  -0.025785955,  -0.025536409,  -0.13994503,  -0.20433785,  0.09992577,  0.077332176,  -0.08317765,  -0.15634954,  -0.045866348,  -0.0015835445,  -0.036000814,  0.16921435,  0.07011012,  -0.05867779,  0.065970905,  0.27985838,  0.17035797,  0.02412246,  0.19979964,  -0.0039144265,  -0.34745747,  -0.1506535,  -0.041797355,  0.059605047,  -0.089229375,  0.20662534,  -0.11855683,  0.09656177,  0.02316922,  0.043107297,  0.15849908,  -0.069521524,  -0.026434004,  0.19277252,  0.09814873,  -0.07294192,  0.09913058,  0.08295043,  0.29558212,  0.06669205,  0.102001056,  -0.072619475,  0.03305356,  0.027009051,  -0.019257242,  -0.021713573,  0.1854151,  0.011646672,  -0.17371775,  -0.18784423,  -0.20158231,  -0.012235891,  0.06711738,  0.050230753,  0.23505042,  0.023206899,  -0.054470964,  -0.23368867,  0.112648636,  -0.16171594,  -0.1611431,  -0.035691172,  -0.1273037,  0.011103862,  0.06955009,  -0.002145059,  0.33249268,  0.041660458,  0.1048207,  -0.21335581,  -0.08958848,  -0.30453157,  -0.19340888,  0.011779985,  -0.025280673,  0.09868012,  -0.07791704,  0.21292904,  -0.2755204,  0.15904605,  -0.073632985,  0.021417994,  0.1330508,  0.03849353,  -0.15454218,  0.09261651,  -0.22803225,  -0.03007815,  -0.26380086,  -0.08076271,  0.050177753,  -0.022038512,  -0.25926447,  0.01659905,  -0.049972214,  0.03867636,  0.057426266,  0.09831571,  -0.008837942,  -0.07799958,  0.07877382,  -0.24689513,  0.03131254,  -0.027814453,  -0.033811864,  -0.13665013,  0.056331567,  -0.18310408,  -0.08388375,  -0.12464418,  -0.041893005,  0.15848172,  0.2950491,  0.102671295,  0.019748932,  -0.16343336,  -0.19227043,  0.092682645,  0.09732393,  -0.0073958607,  0.022243097,  -0.0749603,  0.041026734,  0.07353808,  -0.03273556,  -0.0010809473,  -0.12793373,  -0.07241428,  0.07578635,  -0.089823924,  -0.012721845,  0.04726742,  -0.12346298,  -0.10348862,  -0.06841767,  -0.053789005,  0.07243337,  0.014088993,  -0.042637073,  -0.12890077,  0.016188148,  0.1837425,  -0.0966118,  -0.118258595,  0.0077678785,  -0.08065501,  -0.024705155,  -0.071668185,  -0.027125612,  -0.053092293,  0.08888215,  0.008343389,  0.0048069097,  0.14920291,  0.23692241,  0.036133848,  0.16708705,  -0.058457095,  -0.083013766,  -0.06719416,  0.25548726,  -0.08369472,  -0.1473181,  0.15422362,  0.07423839,  0.00714299,  -0.042138383,  -0.12121763,  0.10559042,  0.017459048,  -0.19770767,  -0.07882294,  -0.11766623,  0.06873199,  -0.15763816,  0.16987382,  -0.012628624,  -0.13179661,  0.16134462,  -0.04345051,  -0.20269597,  0.08736643,  0.11837969,  -0.0056972625,  0.030641299,  0.16516647,  0.21825695,  0.117841475,  -0.01799827,  0.056966014,  -0.06976657,  0.06660186,  0.056178294,  0.102452554,  -0.17138246,  0.002527217,  0.2128598,  -0.04389003,  0.22028217,  0.092734285,  -0.004720364,  -0.051491667,  -0.067082286,  0.126566,  0.062599376,  -0.17985483,  0.014831814,  0.18362337,  0.15804608,  -0.047019847,  0.16424705,  0.014860377,  -0.19836824,  0.09641799,  -0.10210795,  -0.03131575,  -0.007264562,  -0.16853476,  0.023652941,  -0.105043046,  0.059953593,  -0.0060509,  0.021001963,  0.014883785,  -0.061168626,  -0.050341554,  0.028471254,  -0.0643074,  0.17918788,  -0.2040888,  -0.05131417,  -0.23908716,  0.025284303,  0.0072440067,  -0.0801121,  -0.009125563,  -0.10266646,  0.075139135,  -0.16432434,  -0.0019694553,  0.0032483167,  -0.016454114,  0.1527669,  -0.022571538,  -0.12777841,  -0.058791466,  0.17911252,  0.027087996,  0.23250082,  0.025222003,  -0.06557305,  -0.13989106,  0.030136436,  -0.082758576,  0.15463087,  -0.08044195,  -0.040152177,  0.08952916,  -0.14398648,  -0.036518827,  0.024954783,  0.12438491,  0.0070901606,  -0.055335585,  0.08668941,  -0.043404646,  -0.073543884,  -0.06774447,  0.01747305,  0.027098017,  0.061822563,  0.069668,  0.19834736,  0.017834112,  0.019516576,  0.06407242,  0.078172944,  -0.14379807,  0.08463156,  0.10290113,  -0.04608402,  0.2149482,  0.20459357,  0.40458426,  -0.23239127,  0.024674684,  -0.08528915,  -0.060672805,  0.07464723,  0.10303639,  0.029183185,  -0.22334611,  -0.104693174,  0.16566248,  0.08934283,  -0.1362763,  -0.09646865,  -0.08484407,  0.026969014,  0.113284014,  0.08942042,  -0.13535754,  0.3188024,  0.11039024,  0.051522475,  -0.03587131,  -0.032953367,  -0.14907141,  -0.02476135,  0.11944622,  0.07329744,  0.029931348,  0.121761,  -0.20763153,  -0.017057616,  -0.0713637,  -0.10525365,  -0.085418426,  -0.06817323,  -0.042469684,  0.1286124,  0.07223021,  -0.20562816,  0.03963162,  -0.057735886,  0.01815549,  0.04623666,  -0.20993368,  -0.20111895,  -0.0021875636,  0.13148093,  -0.02581406,  0.107521206,  -0.17049593,  -0.08989608,  0.18981819,  0.31777534,  0.2455286,  0.12798989,  -0.099845,  -0.033016138,  0.02579999,  0.03162525,  0.03193349,  -0.17690676,  -0.072056316,  0.09893031,  -0.096541956,  -0.028968487,  -0.07237791,  -0.11803183,  -0.10287511,  -0.14428033,  -0.030286266,  -0.13619904,  -0.01928734,  0.29733002,  -0.06080935,  0.15247151,  0.116968215,  -0.09821019,  -0.054874778,  0.11397424,  0.040476356,  0.14012927,  -0.04076441,  0.16057627,  0.046448942,  -0.041546557,  0.096710816,  0.2668972,  0.05619709,  -0.0540147,  -0.107652016,  0.20806123,  0.11017583,  -0.08163289,  0.3558471,  0.15290426,  0.15553008,  0.04207656,  0.16654456,  0.15378071,  0.0050715525,  0.038233716,  0.10124003,  0.35943446,  0.06580876,  0.07283473,  0.1625264,  0.135461,  0.11720522,  0.0754072,  0.19063018,  -0.09265433,  0.10730133,  -9.562075e-05,  0.21602426,  -0.08271071,  0.040636938,  -0.1701184,  -0.3208921,  -0.03308089,  0.023987914,  0.0063159033,  0.12400494,  -0.059697006,  0.07365875,  -0.104476124,  0.016364304,  -0.05505964,  0.011580627,  -0.055159573,  -0.16711995,  0.14535204,  -0.1247583,  0.04887526,  0.008245005,  -0.026887525,  0.19088869,  0.13294896,  -0.12221106,  0.33798993,  -0.041698616,  -0.10195632,  0.032672323,  -0.0126306275,  -0.068336055,  0.098235495,  0.009904463,  -0.070505925,  -0.119341545,  -0.06990506,  -0.0017962232,  0.13564515,  0.08405306,  0.03644146,  0.094016,  0.009222188,  0.11184082,  0.13973525,  -0.27334732,  0.0041871257,  -0.24956323,  -0.11347419,  -0.049977396,  -0.09758186,  -0.13134487,  0.060780056,  0.0578131,  -0.14680468,  -0.16858801,  -0.11362012,  -0.036274593,  -0.12874883,  -0.1887818,  -0.10537495,  0.04859693,  0.030547058,  -0.053443193,  -0.0132230325,  -0.032986958,  -0.07487132,  0.048360344,  0.06253661,  0.0358016,  -0.25521466,  0.03934591,  -0.13617145,  0.24756244,  -0.09664438,  -0.11463305,  0.09229431,  0.097543746,  0.03713396,  0.2227536,  -0.070954934,  0.14528963,  0.031514768,  -0.12526323,  -0.2552311,  0.16462743,  -0.023759134,  -0.18676671,  -0.14093333,  0.115732245,  0.009170859,  0.12090395,  -0.045986038,  0.25851268,  -0.085727155,  -0.21887793,  0.018669002,  -0.08746733,  0.15013665,  -0.04666993,  0.12144935,  -0.04470645,  -0.32488087,  -0.1398701,  0.23049688,  -0.048043005,  0.18050855,  0.01893396,  -0.08348416,  0.12480852,  -0.00072052516,  -0.062019665,  0.25959733,  -0.011471888,  -0.10118306,  0.10435392,  0.019016016,  -0.030230533,  -0.11387709,  0.07335476,  0.086650394,  -0.07553427,  -0.05447519,  -0.14652488,  -0.0055099446,  0.060409207,  -0.2259688,  0.24399428,  0.07072763,  -0.058394965,  0.057698786,  0.19646984,  -0.051316645,  0.02335417,  0.39927545,  0.15513505,  -0.1667429,  0.07570491,  0.30330852,  -0.0124690775,  0.022484684,  0.053315308,  0.09707694,  0.05179713,  0.048341755,  -0.13427074,  -0.038853057,  0.036886714,  -0.15971304,  0.06225859,  -0.033877734,  0.025570292,  0.018430253,  -0.01748878,  0.20914854,  -0.09282896,  -0.035743725,  0.07383599,  -0.2040033,  0.09814181,  0.09637489,  0.13104123,  0.05768668,  -0.046265304,  -0.10144825,  -0.11473071,  -0.18069367,  0.09478011,  -0.14930531,  -0.37625036,  -0.04293329,  0.07606593,  -0.03366149,  0.21894626,  -0.025952447,  -0.20993875,  -0.2632398,  0.091049306,  -0.14209369,  -0.02321899,  0.111257665,  -0.026040148,  0.084607966,  -0.07852291,  0.20009224,  -0.04989212,  0.004864115,  0.13253993,  -0.09621554,  -0.3050283,  -0.09725505,  0.26589242,  0.03272032,  0.04175825,  -0.14949252,  0.10334669,  -0.09582774,  0.02861986,  0.07466885,  0.06733622,  -0.1743845,  0.05152121,  -0.41763523,  0.102192625,  -0.19813666,  -0.0037124716,  0.004254029,  0.20627531,  0.09284822,  0.14965118,  0.030660305,  0.0002603298,  0.0006316763,  0.080823146,  0.0074272165,  -0.015645236,  -0.0022846465,  -0.12545784,  0.00096423284,  0.026791668,  -0.0011342112,  -0.019873854,  0.08300678,  -0.20763326,  -0.048432603,  -0.09151333,  0.04264795,  -0.12428884,  0.026445627,  0.02185348,  0.10879966,  -0.021386143,  -0.07421145,  -0.060572978,  -0.03553449,  0.021778654,  -0.07877857,  0.009506949,  0.086508736,  0.00390908,  -0.041637447,  0.23751384,  0.0066467198,  0.057962127,  -0.013396658,  0.033185657,  0.05577874,  0.08345672,  0.05455634,  -0.034262773,  -0.026283216,  0.03784751,  -0.098603435,  -0.07612976,  0.0776672,  0.002373884,  0.02153349,  -0.03284703,  -0.029258678,  -0.056449205,  -0.067622595,  -0.0024362344,  -0.12828845,  0.13806531,  -0.0074581597,  0.272898,  -0.032933258,  0.036825057,  -0.07718565,  -0.14863917,  0.1394691,  0.02556063,  -0.017949376,  -0.031939916,  0.07211144,  0.053823702,  0.22474307,  0.10654079,  -0.13407066,  0.16257183,  0.23083441,  -0.00033964613,  0.19115919,  -0.13299607,  -0.013926861,  -0.25198618,  0.21500167,  -0.10954173,  -0.028873494,  0.00553474,  0.03036118,  0.16274104,  -0.037008572,  0.0410612,  0.20093584,  -0.023321336,  -0.04932266,  0.12646163,  0.20249964,  -0.00731252,  -0.1288237,  0.03753476,  0.052392673,  -0.0037959502,  0.17519741,  0.028734844,  -0.05427517,  0.11988704,  0.10899368,  0.0037690748,  -0.01227001,  0.021193502,  0.37927622,  -0.015222611,  0.15007275,  -0.10555788,  -0.043807507,  0.03604205,  -0.030051652,  0.1002915,  0.08245067,  0.13000418,  0.02459374,  0.2743609,  -0.069536634,  -0.033219736,  0.21792495,  -0.02875027,  -0.050248235,  -0.02309185,  -0.11739041,  -0.031621393,  0.049780454,  -0.14640972,  -0.037811607,  -0.15456004,  -0.06992439,  0.15865073,  -0.15515481,  -0.067498244,  -0.045784805,  -0.025663823,  0.12564442,  -0.16830087,  -0.09738741,  -0.19848104,  -0.27261645,  -0.04315839,  -0.08481348,  -0.33985507,  0.25255358,  0.022454444,  0.08068822,  0.04825225,  -0.28875428,  -0.034457672,  -0.07622774,  0.04397493,  0.25726894,  0.13182414,  -0.09100802,  -0.041586053,  0.23936464,  -0.023548506,  0.21894239,  0.18948722,  0.0657459,  -0.0636723,  0.01007979,  0.17129387,  0.13939767,  -0.022987908,  -0.02021558,  0.10516223,  0.12131494,  0.0008925644,  -0.029106012,  0.07408391,  0.051448207,  -0.06037301,  0.15871,  0.103360884,  -0.07844821,  0.24778718,  0.06210035,  0.064492926,  0.073663734,  0.15579629,  0.008264847,  -0.040424313,  0.11041637,  0.1612085,  0.029697763,  0.11517465,  -0.22164695,  -0.002160199,  0.0574819,  0.058952786,  0.15470313,  0.42441693,  0.07711481,  -0.06735296,  0.0170667,  -0.04533122,  -0.04871883,  0.28784072,  -0.4177522,  -0.2361728,  0.18040143,  0.1075126,  0.03166011,  0.051883783,  -0.16952929,  0.089300476,  -0.08489118,  -0.13426524,  -0.0923042,  -0.37135404,  0.18468723,  -0.019255916,  0.059252262,  -0.0532802,  0.18234876,  -0.15744302,  -0.061221868,  0.034823745,  -0.03490268,  -0.044910315,  0.12556535,  0.105111666,  -0.057544164,  0.29299098,  -0.062357597,  0.024424255,  0.03816042,  -0.0466378,  0.09849961,  -0.019378372,  -0.067070715,  0.0067929495,  -0.09752503,  0.0510534,  0.06548567,  0.069934204,  0.14954948,  -0.13009846,  0.13945726,  -0.030507319,  0.040027693,  -0.15860654,  0.045499004,  0.058367427,  0.11239562,  0.024432275,  0.02532874,  -0.046836182,  0.17025475,  0.047312587,  -0.06609574,  0.017579917,  -0.15911981,  -0.14944683,  -0.123725966,  -0.15673956,  0.0036744387,  -0.12285984,  -0.18155417,  -0.033134803,  -0.15314999,  -0.06518535,  0.056410167,  -0.030604063,  0.30298743,  0.0064858682,  0.17938259,  -0.007255128,  0.07206982,  -0.035111103,  0.16427854,  -0.060585935,  0.027569875,  0.028165588,  0.051344573,  0.14201066,  0.09460447,  -0.016604224,  0.17973202,  -0.03620779,  -0.13768584,  -0.07856233,  0.011129795,  -0.106949076,  -0.08602976,  -0.14663059,  0.10427974,  -0.16380382,  -0.08701883,  -0.16185518,  0.13681814,  -0.106650695,  -0.021057537,  -0.07541833,  -0.29773864,  0.14632279,  0.16611955,  0.021935156,  0.1411553,  0.0601775,  -0.040701807,  -0.23351341,  -0.08091438,  0.094795875,  0.08152819,  0.15805565,  0.071740255,  -0.034223236,  -0.08453628,  -0.055733852,  0.14765109,  -0.039231468,  -0.037151743,  0.21881469,  -0.19738324,  0.025935479,  -0.068996996,  -0.1139671,  0.09716142,  -0.15586382,  -0.033414513,  0.12598768,  -0.10277229,  -0.12507454,  -0.100436404,  0.041109066,  -0.070304975,  0.07392237,  0.12149283,  0.07122932,  0.20706883,  -0.023733659,  0.12544267,  -0.17052862,  0.33209082,  -0.06349704,  0.03313278,  -0.022579722,  -0.02763276,  -0.021753663,  0.21718657,  -0.032574303,  -0.024296375,  0.019316293,  -0.008403067,  -0.42446104,  -0.074912794,  0.05541913,  -0.09410087,  0.21260059,  -0.056575723,  0.037037987,  -0.15080346,  0.14549002,  -0.08956565,  0.17080006,  -0.034445312,  0.010273995,  0.25203127,  -0.0751624,  0.029175507,  0.05744683,  0.057031617,  0.031184558,  0.06948764,  0.20005603,  -0.16329029,  0.3172524,  -0.08420309,  -0.06532794,  0.069202125,  0.010407132,  0.007954629,  -0.048950873,  0.19852746,  -0.041978788,  -0.0602581,  -0.21161297,  -0.037216414,  -0.013798938,  0.09529244,  0.0461797,  -0.1342537,  -0.10523873,  0.256537,  -0.07764869,  0.021564892,  0.04385535,  -0.35825974,  0.12274104,  0.09250565,  0.017461956,  0.11967346,  -0.0779652,  -0.025012735,  0.20824774,  -0.06006737,  -0.25270736,  0.14936262,  -0.09302612,  0.021346781,  0.39974153,  -0.21265385,  -0.18030128,  -0.115057625,  -0.12464349,  -0.20178089,  -0.1702084,  0.15514475,  -0.1490669,  -0.02678576,  -0.038167935,  0.013299455,  -0.03652646,  -0.18512382,  -0.10899568,  0.110135555,  0.029479854,  -0.24160627,  -0.083875574,  -0.028817235,  0.32771832,  0.07952919,  -0.1784712,  -0.29518938,  -0.13292336,  -0.044907253,  -0.08841917,  -0.25946027,  -0.11153905,  0.13263376,  -0.062449105,  0.11509163,  0.20537797,  -0.12020828,  -0.049801566,  0.13602073,  -0.06726832,  -0.1311281,  -0.049779385,  -0.15754567,  -0.123929635,  0.094409674,  -0.014628845,  0.026140917,  0.06902045,  -0.00029579294,  -0.12070864,  0.16997531,  0.20816317,  0.06517547,  -0.13678168,  -0.08337547,  0.094914764,  0.25763386,  -0.10808698,  -0.014688043,  -0.14793184,  -0.0075939395,  0.14878464,  -0.22835393,  -0.19055071,  0.043781657,  -0.019909134,  0.078220114,  0.13491778,  -0.18912661,  -0.05260048,  0.11420193,  0.4449172,  -0.11294992,  -0.051359802,  0.14859718,  0.18934067,  -0.1553033,  -0.04424968,  -0.042833097,  -0.2105836,  -0.025605218,  0.33656874,  -0.3445015,  0.03154021,  -0.10510421,  -0.15372944,  0.07714248,  -0.12634741,  -0.35640994,  -0.13572955,  -0.28493494,  0.15874344,  -0.21528701,  -0.12341448,  0.20066859,  0.29933956,  -0.087378375,  0.08151937,  -0.070102684,  -0.49120048,  0.2021586,  -0.013173435,  0.022393938,  -0.2938676,  -0.07030859,  0.056497686,  0.030683836,  -0.10255343,  -0.0674449,  0.11287379,  -0.14366622,  0.07700167,  0.013755725,  0.09451443,  0.054520324,  -0.26306707,  -0.19066402,  -0.20438582,  0.041078687,  -0.032897264,  -0.049794096,  -0.10794613,  -0.0620267,  -0.27657554,  -0.17951556,  0.09914645,  -0.16512232,  -0.04957755,  -0.0089037195,  -0.056915365,  0.092802905,  0.13324623,  -0.10981863,  -0.1303017,  -0.22448468,  -0.45971853,  -0.01441094,  -0.0072139124,  -0.111744985,  0.06461939,  -0.10657205,  -0.05630709,  -0.0636223,  -0.080853686,  0.1722598,  -0.017850796,  -0.29269433,  0.023025341,  0.00083957525,  0.10349372,  0.053405583,  0.07519939,  -0.18887803,  -0.048915867,  -0.13339767,  -0.035036236,  0.095572025,  -0.005357927,  0.18114804,  0.09007807,  -0.0670452,  0.094048016,  -0.18825078,  -0.03244881,  0.18326414,  0.044608228,  -0.14347272,  -0.16337122,  0.009601521,  0.047793593,  -0.06352092,  -0.034766898,  0.1594083,  -0.020338433,  -0.12897071,  0.22187679,  0.13021782,  -0.114097714,  0.17192407,  0.1393064,  0.075037405,  -0.045453873,  0.24887258,  -0.19846879,  -0.14261739,  0.14615276,  -0.05769127,  0.06853242,  -0.07043654,  -0.0281718,  0.15534331,  0.26805606,  -0.23450004,  0.21241346,  -0.17649755,  -0.09940512,  0.118400425,  0.14155574,  -0.033042487,  0.17701228,  -0.07698778,  0.13053544,  0.020392604,  -0.044803996,  0.11634542,  -0.08951108,  0.018492611,  0.1315744,  -0.14465284,  0.16263708,  0.28019255,  -0.07380137,  -0.18795098,  -0.20565002,  0.11368755,  -0.0076491805,  0.10513081,  -0.12773517,  -0.44458762,  0.062379748,  -0.24343522,  -0.06019243,  -0.2882549,  -0.05355502,  -0.0038305675,  0.17109592,  0.18872255,  0.08751371,  -0.07545853,  -0.0809334,  0.0144170765,  0.09969308,  -0.12437516,  0.02688124,  -0.07222815,  0.22445926,  0.016982254,  0.09978737,  -0.1585887,  0.077666156,  0.012407376,  0.16610473,  -0.2790169,  0.027648788,  0.03694946,  0.0081064375,  0.20782784,  -0.14314103,  -0.20744696,  0.13899672,  0.018960133,  0.11406245,  0.2034449,  -0.12745026,  0.15422225,  0.20626172,  -0.2468796,  0.027362917,  0.010477475,  -0.18147932,  0.10869061,  -0.13265027,  -0.12995774,  -0.0966748,  0.0045998064,  0.03401462,  -0.03700809,  0.1677822,  0.009541467,  0.10984297,  0.24812023,  0.021326894,  -0.09685508,  0.026627425,  -0.049578007,  0.044568695,  0.15172754,  0.06125319,  0.021506865,  0.2484024,  -0.007634509,  0.06434793,  -0.05668557,  0.28970897,  0.34755164,  -0.016954903,  0.1282415,  0.048080567,  0.16594206,  0.100954056,  0.15741317,  0.07845165,  0.12527132,  0.0057871225,  0.12509215,  -0.08758347,  -0.036793694,  0.11792143,  0.06501863,  -0.43640268,  -0.059911184,  -0.08704045,  0.09029922,  -0.025310872,  -0.011768693,  0.042335846,  0.4209474,  -0.035683755,  0.25162786,  0.031057633,  -0.19107197,  0.24859111,  0.36822057,  -0.10181297,  -0.035427112,  -0.36968097,  -0.10836174,  0.1502656,  -0.10532095,  0.03552753,  0.18763399,  0.0009568328,  0.2182175,  0.22529233,  -0.38798127,  -0.00080568215,  0.15244552,  -0.03471242,  -0.016416522,  0.105884664,  0.13729858,  0.17148052,  0.024838772,  0.04349833,  -0.047820985,  -0.051448405,  0.06404846,  -0.14856617,  0.014096986,  -0.14956856,  0.04398636,  0.0004407171,  0.026654553,  0.10725802,  -0.11230874,  0.21518268,  -0.11391998,  0.058414098,  -0.054086454,  0.021629661,  0.4488062,  0.2058542,  -0.04202555,  -0.059367497,  0.099126816,  -0.01107001,  0.22817558,  0.14839277,  -0.09898072,  -0.30388975,  0.20616303,  -0.062262956,  0.12499642,  0.10472256,  0.16498251,  -0.09149873,  -0.17543271,  -0.030265335,  -0.12300871,  0.1351943,  -0.029130774,  -0.02869853,  -0.23217793,  -0.2970777,  0.036813628,  -0.065268666,  -0.046519674,  -0.17896444,  -0.07955146,  0.13821916,  -0.08431055,  0.31604362,  -0.36075765,  0.001936963,  -0.0083086975,  0.021587303,  0.03334154,  -0.106958576,  -0.19573388,  -0.2179297,  0.0424668,  0.008425825,  0.06736147,  0.020492699,  0.035094235,  -0.16805309,  -0.05252004,  -0.07329674,  0.056664824,  0.10981052,  -0.22049004,  -0.108698666,  -0.026207449,  0.16720022,  0.04054354,  -0.20079717,  0.023071608,  -0.1780186,  0.12687682,  0.037466306,  -0.22147837,  0.13124731,  0.07442163,  -0.19882171,  -0.15511258,  0.03760294,  -0.10819454,  0.10061528,  0.0080945855,  -0.3353523,  -0.009104142,  -0.013486863,  0.28535798,  0.5668339,  -0.1303532,  0.17949922,  -0.07416419,  0.28236577,  -0.000941182,  -0.0415856,  -0.15972228,  -0.018294718,  -0.20554003,  0.14571069,  -0.04248483,  -0.09491664,  -0.08005178,  -0.10813891,  0.0629551,  -0.20987003,  -0.040131424,  0.09033322,  -0.123864405,  0.19033992,  -0.1043595,  0.21552266,  -0.049025904,  0.21643558,  -0.16283052,  -0.016830754,  0.10881763,  -0.073438734,  -0.06419669,  -0.124233216,  -0.04042541,  -0.10301539,  -0.06607383,  0.17911291,  0.08647084,  0.20237191,  -0.11409472,  -0.06523596,  0.029145828,  -0.14218178,  -0.18589646,  0.13809258,  -0.009839701,  -0.083050765,  0.12028611,  0.030783081,  0.005623067,  0.31174886,  -0.069529794,  -0.13729577,  -0.06492734,  0.087888576,  -0.05544633,  -0.0027051521,  0.21111572,  -0.19910383,  0.1928852,  0.019581646,  0.01006951,  -0.012582372,  0.09062594,  -0.08518215,  -0.13179962,  -0.15422991,  -0.046109542,  -0.023328528,  0.0118019935,  0.046438083,  -0.053335622,  0.06428886,  -0.03601161,  -0.048575807,  -0.03293852,  -0.061829988,  -0.019088546,  0.02774893,  0.09372912,  0.006795574,  -0.11444159,  0.20546816,  -0.0038155841,  -0.05992519,  -0.12853567,  -0.217301,  0.09586711,  0.24227723,  0.029979855,  -0.31350386,  -0.061540905,  -0.07778757,  0.043083742,  0.19089785,  -0.37050942,  -0.15719233,  0.032127175,  0.26243353,  -0.2844781,  -0.09514484,  0.14414452,  -0.12795171,  -0.028817503,  0.11725693,  0.15265092,  0.20903602,  -0.08629738,  -0.047473174,  0.038795155,  0.102331586,  -0.032739077,  -0.06455902,  -0.0010529355,  0.095714115,  -0.16153759,  -0.13271227,  -0.05715112,  -0.115859374,  -0.1591528,  -0.14689209,  -0.055477805,  0.048054755,  -0.013503993,  0.008701587,  0.043566406,  0.029248517,  -0.2692328,  0.17877713,  0.20988023,  -0.051102642,  0.15867126,  -0.075811975,  -0.06944356,  0.12981515,  -0.021520993,  0.035080317,  0.13445747,  0.15365642,  -0.0633538,  0.20438716,  -0.11518816,  -0.14427829,  0.008836299,  0.07041176,  0.083650716,  0.09070877,  -0.1049505,  0.0084654465,  0.028576449,  -0.067926176,  0.07508788,  0.3494769,  0.1890467,  -0.039687555,  -0.115689375,  0.10690272,  0.033547238,  -0.16349554,  -0.17102994,  0.03924265,  -0.14597496,  -0.10465362,  -0.0016606275,  0.009277859,  -0.013270016,  -0.33098683,  0.060173593,  -0.12760139,  -0.04417502,  -0.017295366,  -0.1507512,  0.2083142,  0.30415207,  0.039149344,  -0.07188506,  -0.12750685,  0.1339129,  -0.08912962,  0.3944201,  -0.020015378,  -0.102049336,  0.2477407,  -0.13252588,  0.027270043,  -0.1436852,  0.2904508,  0.18929467,  0.037300214,  -0.029069047,  -0.01229537,  0.21433483,  -0.054272704,  0.29593197,  -0.044199686,  0.13374405,  0.02891382,  -0.12815417,  -0.06360949,  -0.09210738,  -0.13673553,  -0.20312434,  -0.27995604,  0.07871941,  -0.14099756,  -0.09113278,  -0.009159648,  -0.12248212,  -0.0115186665,  -0.16042416,  -0.2092567,  0.122139595,  -0.069948524,  0.17356278,  -0.25232854,  -0.011457251,  -0.17700359,  -0.26741636,  -0.07418785,  0.12928508,  -0.22564663,  0.10076394,  0.19536118,  -0.15878147,  0.03867589,  0.02975719,  0.1797765,  -0.051685456,  -0.06116357,  -0.17806686,  -0.025985427,  0.041661106,  -0.032081027,  -0.03335723,  -0.0979073,  0.3214756,  -0.16984119,  -0.0991784,  0.03341016,  0.075029016,  -0.10774007,  0.012247038,  -0.19112782,  -0.023266302,  0.043950476,  -0.050473217,  -0.06321042,  0.076078475,  -0.09850261,  -0.06034921,  0.19039534,  -0.009175699,  -0.09669084,  -0.008093453,  -0.07511736,  0.13458048,  0.05869309,  -0.05919986,  -0.09842604,  0.077003874,  0.13122687,  0.0075604124,  0.27193144,  0.16427404,  0.06452544,  -0.08541194,  -0.059049603,  0.09154543,  -0.028936967,  -0.028823897,  -0.07566929,  0.16171175,  -0.045883536,  0.17716603,  -0.16749321,  -0.111682124,  0.26515576,  -0.080319546,  0.2075739,  0.048883148,  -0.111921914,  0.083083086,  0.0482971,  -0.073616974,  0.07415943,  0.05672052,  -0.020383183,  0.09480581,  0.18066725,  -0.12367048,  -0.15470591,  0.27292365,  0.21311852,  -0.123108044,  0.1878595,  -0.029227676,  0.05831185,  -0.115752324,  -0.03420927,  -0.08047591,  0.14330338,  -0.088570595,  -0.10765729,  0.0050382074,  -0.14389828,  0.084006876,  -0.13918248,  -0.14617765,  -0.208201,  0.014186081,  0.019547861,  0.052632023,  -0.09171444,  -0.030160032,  0.054449316,  -0.0580624,  0.03063635,  0.07117157,  -0.056104388,  -0.10887543,  0.08780189,  -0.02214003,  -0.09018631,  -0.02905318,  -0.035631794,  -0.08415231,  -0.031094767,  0.048226032,  -0.014257515,  -0.010575709,  -0.15889096,  -0.096371606,  -0.08654872,  -0.15641278,  -0.0399794,  0.07782281,  -0.018557915,  -0.010889085,  -0.22254881,  0.099559374,  -0.01743023,  0.0066430485,  0.13759093,  -0.07518227,  -0.015814839,  0.053728737,  0.11648703,  -0.015081666,  0.003959224,  0.0065967995,  -0.15090844,  0.39038643,  0.09670277,  0.2443444,  -0.08775829,  0.08105606,  0.1308938,  0.028354457,  0.04262221,  0.016683884,  0.10613567,  0.22258756,  0.19874908,  -0.06856187,  -0.0994566,  0.19278836,  0.13290992,  0.16268761,  0.030296411,  0.09801759,  -0.01993116,  0.01959622,  0.1533653,  -0.010433703,  0.25675267,  0.20629206,  -0.08832364,  0.08401074,  0.026064338,  0.07426588,  0.12281208,  0.17870732,  0.06137237,  0.1974221,  -0.062043935,  0.25480467,  0.0070698583,  0.079285346,  0.022581335,  -0.0061641983,  -0.26150587,  0.048562873,  0.049546286,  -0.09165023,  0.3066162,  0.054016776,  0.028553257,  0.29015887,  -0.023676183,  0.019140407,  0.09810521,  -0.07367185,  0.032138325,  0.051723123,  -0.14194742,  -0.17103395,  -0.37408522,  0.034525435,  -0.13735686,  0.07370428,  -0.32229114,  0.109363675,  -0.07153814,  0.079134755,  0.2861569,  -0.8162516,  -0.0058712135,  -0.23074335,  0.029062947,  0.101089664,  -0.033740938,  0.05467538,  -0.27144536,  0.06284123,  0.045177072,  0.07710798,  -0.2701625,  -0.057553135,  -0.33135834,  0.09649364,  0.07913647,  0.14053558,  0.004411956,  0.16201375,  0.07239877,  0.2804239,  0.30692542,  0.028349044,  0.09328515,  -0.15444602,  -0.14068794,  -0.15168619,  -0.19501732,  0.24932085,  -0.10306301,  -0.0964533,  0.34586027,  0.024190284,  0.054651942,  0.25915763,  0.20064151,  0.11959596,  0.026540298,  0.091117896,  -0.0030176137,  0.04038842,  0.08557478,  -0.17357574,  -0.13340965,  -0.12947035,  0.1287714,  0.067493096,  0.07387597,  -0.1900153,  -0.12710348,  -0.06051606,  -0.22738291,  0.023223218,  -0.15199454,  0.047774818,  0.22743344,  0.02781022,  0.060522206,  -0.32949594,  0.008901327,  0.0003828865,  -0.026805328,  0.2292922,  0.07492668,  -0.032573827,  -0.10090109,  0.11534421,  -0.018780569,  0.05488195,  0.05053209,  0.03565879,  0.19331491,  -0.100610174,  0.044643648,  -0.012693199,  0.46108046,  -0.14475383,  0.23610002,  0.14227644,  0.016829079,  -0.08852592,  -0.022855725,  -0.1331412,  -0.12200912,  -0.26977512,  0.10825188,  -0.08910452,  0.1112143,  0.060642514,  0.26811674,  0.24885906,  0.21176083,  -0.16567476,  0.11072233,  -0.0077840663,  -0.28637424,  0.14882165,  -0.050629035,  -0.13321207,  -0.26845253,  -0.20830515,  0.04775388,  -0.09657631,  0.15229264,  0.00392746,  0.0911722,  -0.12962243,  -0.14766222,  0.04930969,  0.041209187,  0.11908839,  -0.09178436,  0.028596936,  -0.099537924,  0.039866768,  -0.2480729,  0.04830326,  0.018476738,  0.028213833,  0.23350896,  0.0794257,  0.27469185,  -0.20052484,  -0.10838655,  0.108146004,  -0.019693123,  0.101843126,  0.07497562,  0.006980675,  -0.10600748,  -0.0008716036,  0.0642346,  0.010327124,  0.16073567,  0.06667482,  -0.2098882,  -0.107006796,  0.063552015,  -0.004912431,  -0.051886264,  0.1305269,  -0.012169826,  0.0008720567,  0.083198994,  -0.0340819,  0.039901458,  -0.038959544,  0.27177715,  0.15359156,  -0.08023226,  -0.06491574,  0.10803759,  -0.01129272,  -0.13164456,  -0.05572993,  -0.01970675,  0.04164801,  0.1054413,  -0.051966958,  0.029572746,  0.13403535,  0.049256902,  0.13958257,  0.010066843,  -0.2073231,  -0.20979595,  0.05748614,  0.057304244,  -0.26147425,  0.09857819,  0.08982407,  0.16791032,  0.1339402,  0.0027491516,  -0.2450278,  0.011624081,  -0.11679506,  0.07086004,  -0.15300982,  0.19443293,  0.05799868,  -0.27119085,  -0.18556586,  -0.26344296,  0.15615976,  0.26490304,  0.21474853,  0.0053138416,  -0.06721509,  -0.05787593,  -0.18598878,  -0.19226699,  -0.17629956,  -0.22445926,  -0.0975513,  -0.084596224,  -0.35923365,  -0.089627095,  0.103041396,  0.05977708,  0.19043854,  0.042788003,  0.05109898,  0.042471945,  -0.3399512,  0.07321058,  0.09467123,  -0.18560003,  -0.015202556,  -0.031625185,  0.10139816,  0.19903964,  -0.039430846,  -0.048006397,  -0.04908984,  -0.19185936,  -0.1170785,  -0.05055663,  -0.25967416,  0.2553842,  -0.12528417,  0.08207782,  0.11356426,  -0.17784487,  0.002271514,  0.15950458,  -0.08482627,  -0.062432505,  0.2659942,  -0.0028380316,  -0.22900309,  0.19309449,  -0.009127428,  0.017238315,  0.011303238,  -0.18055995,  0.030642372,  -0.091944456,  -0.20087706,  -0.16601452,  -0.06337712,  0.047489207,  -0.1553929,  0.16710682,  -0.026041279,  -0.16399983,  0.08358905,  -0.16062722,  -0.021035157,  0.1923192,  -0.11237524,  0.2692219,  -0.1814931,  -8.3626364e-05,  0.047414448,  0.026607774,  0.027636765,  0.011429875,  0.04902929,  -0.2125466,  0.031957515,  -0.008771416,  -0.16919999,  -0.2803536,  0.23394476,  0.036261003,  -0.06933525,  0.13409574,  -0.21879233,  0.22799216,  0.3485679,  -0.0070398687,  0.09398332,  0.12628369,  -0.038942207,  -0.26794466,  -0.032426592,  0.031220233,  0.0028435523,  0.36128312,  -0.16855125,  -0.1721847,  0.043646343,  -0.3199964,  0.07753035,  0.17987363,  0.07486304,  0.38123816,  -0.20837559,  0.020609275,  0.01239264,  0.29592568,  0.2929372,  0.25532588,  -0.014388765,  -0.0083128605,  -0.59205514,  -0.089882396,  -0.10766452,  0.06800331,  -0.028330388,  0.12996857,  -0.1310964,  0.04837213,  -0.22463435,  0.006269842,  0.004063449,  -0.067119524,  -0.14298965,  -0.26973882,  0.11022083,  -0.10444153,  -0.20486706,  0.028016372,  -0.074437074,  -0.2772195,  0.13065922,  -0.104988314,  -0.053759065,  -0.20641208,  -0.06474542,  0.08301191,  0.11482232,  0.0742081,  0.018802153,  -0.08591462,  -0.12987372,  -0.060614936,  0.033433083,  -0.044378776,  -0.1558301,  0.15801215,  0.112075984,  -0.033422302,  -0.04239548,  0.045003984,  0.13041897,  0.18551233,  -0.048737537,  -0.109975085,  0.06199452,  0.16357233,  0.11283571,  0.06656665,  0.087542936,  -0.076413244,  0.13417882,  -0.14710456,  0.08269822,  -0.02794023,  0.074499495,  0.15012746,  0.16632047,  0.07785207,  -0.006450518,  -0.029868942,  0.13295016,  5.4045115e-05,  -0.11911562,  -0.010243142,  0.10618562,  -0.08186951,  0.08162831,  -0.20825937,  0.038840044,  -0.13126801,  -0.12091951,  -0.026126811,  0.11271584,  -0.022419855,  0.13331553,  -0.2017647,  0.13188711,  0.22027625,  0.241475,  0.30438423,  0.17224024,  -0.2298197,  -0.02032368,  -0.18909101,  0.28665268,  -0.11312851,  0.01128208,  0.10073317,  0.15314732,  0.09407142,  -0.047228087,  0.06672554,  0.43155822,  0.1940955,  -0.120322995,  0.034631487,  0.019889366,  0.017734341,  -0.0025912726,  -0.22366191,  -0.16709347,  -0.0046573333,  0.0047864644,  -0.07895792,  0.021088755,  0.01004164,  -0.044149704,  -0.10208483,  -0.056784455,  -0.13355243,  0.13004018,  0.027935425,  0.18033187,  -0.08523089,  -0.17471819,  0.048013605,  0.091309026,  -0.048390146,  0.12374272,  -0.14994131,  -0.08393201,  0.0044143572,  0.08945743,  0.029570643,  0.20037293,  0.015945751,  -0.14035083,  -0.2564506,  0.094457276,  -0.011681262,  0.08188333,  0.10686035,  -0.15298885,  0.0613319,  0.16118784,  -0.02370572,  0.048727173,  -0.014514371,  -0.010119433,  -0.13021305,  0.17192729,  0.07743538,  -0.12925175,  0.27858162,  -0.10286951,  -0.10719963,  0.05583978,  -0.2884081,  0.26674175,  -0.014477291,  0.17727178,  0.04945048,  0.24479449,  -0.06654798,  0.17033616,  0.049969118,  0.12780075,  0.16505876,  -0.04889535,  -0.12211752,  0.313239,  -0.06533943,  0.21893486,  0.1365092,  -0.08593527,  -0.081344105,  0.13443705,  0.18314193,  0.1476861,  0.06934647,  -0.045564212,  0.12780853,  -0.12781878,  -0.057761554,  -0.06918448,  0.29505533,  0.07006109,  0.038757112,  0.083024226,  0.16235517,  0.0397374,  0.27367055,  0.0645426,  -0.02271733,  0.0018940405,  -0.027514791,  -0.00703794,  0.004657179,  0.022082012,  0.041762933,  0.020623675,  0.44643536,  -0.04991476,  -0.10796913,  0.065720975,  -0.09952978,  -0.05224245,  0.13277532,  -0.59373164,  -0.12788479,  -0.06445047,  0.02333107,  -0.1666869,  0.3360063,  -0.37544766,  -0.24284859,  0.08006463,  -0.33072463,  -0.0044682384,  -0.13471028,  0.21617872,  -0.033473518,  -0.2140574,  -0.016672758,  -0.025552914,  -0.27959472,  -0.5531189,  -0.035192095,  -0.05806666,  -0.012931527,  0.06952385,  -0.08778816,  0.02037173,  -0.2113033,  -0.185324,  0.102219634,  0.01173922,  0.24349673,  0.06566249,  0.021898605,  -0.028112061,  0.083622366,  0.12886406,  0.1613235,  0.041716076,  0.06802384,  -0.13158764,  0.2146341,  0.08133659,  0.21475062,  0.08666573,  -0.051911827,  0.45327178,  -0.3967683,  0.11326767,  -0.050191745,  0.11556083,  -0.010203412,  0.13812792,  0.018122684,  0.13053873,  0.16801992,  0.15681343,  0.124120146,  0.065650135,  -0.10956955,  -0.2230788,  -0.0005802081,  -0.07894525,  -0.059954885,  -0.14018841,  0.14500259,  0.08421632,  0.21992917,  -0.2783423,  -0.1414865,  -0.026549961,  -0.1157856,  0.0028082419,  -0.16573109,  0.029865645,  0.007437678,  -0.04462073,  0.07766082,  -0.12816156,  -0.018854972,  0.020991307,  -0.09972003,  0.1409875,  0.02878405,  -0.16197787,  -0.10960624,  0.1417391,  -0.014680768,  0.080544904,  0.011189006,  -0.13109048,  0.39910245,  0.3419591,  -0.04827431,  0.001298553,  -0.48954406,  -0.074294984,  -0.14450642,  -0.0055606766,  -0.1315379,  -0.027013794,  -0.047724824,  -0.009786119,  -0.15948427,  0.21842007,  0.1432599,  -0.003540217,  0.034405813,  0.12508358,  -0.043093707,  -0.24033125,  0.04967645,  -0.066807754,  0.008321066,  0.075167924,  0.3065558,  -0.044967394,  -0.012558297,  -0.14790931,  -0.15407823,  -0.05710502,  0.038320825,  0.0033699851,  -0.03625098,  -0.012139119,  0.0019108928,  0.031205745,  -0.1773962,  -0.0974914,  0.13859752,  0.0088857645,  0.13956943,  0.047902487,  0.012263679,  -0.020860966,  -0.19344987,  0.020408308,  0.004297614,  0.10323017,  0.3246488,  -0.087035686,  0.15276097,  -0.07789061,  -0.30164585,  0.26270962,  -0.14736173,  0.09297331,  0.08247851,  0.11251661,  -0.12654816,  0.23943993,  0.023322308,  -0.009134961,  0.18531574,  0.03598417,  -0.14603281,  0.13702288,  0.020756604,  0.03705106,  0.3331293,  0.12099102,  0.07981804,  0.18882816,  0.21351379,  0.074455544,  0.04381026,  -0.020235568,  0.006569694,  -0.045146912,  -0.032788504,  0.102344066,  0.13801421,  -0.0620064,  -0.03539693,  0.028071547,  0.03484447,  -0.015678376,  0.12598543,  -0.09748118,  0.017413355,  -0.018413967,  0.111450724,  0.08054088,  0.17234822,  0.0015506283,  -0.05304479,  -0.08355002,  };

const float data_conv_1_bias_0 [ 32 ] = {  -0.13120316,  -0.12820154,  -0.2619772,  -0.42428464,  0.061488822,  -0.23572563,  -0.1594814,  0.19529162,  -0.32264313,  0.09739986,  -0.11641951,  -0.015730094,  -0.16276304,  -0.08375207,  -0.36439517,  -0.10497842,  -0.14451395,  -0.21942855,  0.006400786,  0.020295482,  0.007159775,  -0.007688976,  -0.22010455,  -0.026816497,  -0.01739261,  0.029442793,  0.093250915,  -0.3184053,  -0.015325986,  -0.35019124,  -0.2637941,  -0.40828997,  };

const float data_conv_2_Variable_0 [ 9216 ] = {  0.095305845,  -0.093807526,  0.27647537,  0.009556444,  0.3680006,  0.17077202,  -0.21096583,  0.30137706,  0.0997765,  -0.16578044,  -0.12487342,  -0.31250015,  0.042389046,  -0.11373779,  -0.0023460295,  -0.032804165,  -0.26775718,  0.19529277,  -0.04356488,  -0.04647909,  -0.14255255,  0.050869983,  -0.071116984,  0.318288,  0.09810661,  -0.044850506,  0.043686863,  0.14584284,  -0.034943428,  -0.051987205,  -0.15873449,  0.1045804,  -0.14833206,  0.1868568,  0.07251516,  0.11011115,  -0.23550192,  0.037615333,  0.0032751572,  0.21571304,  -0.035937354,  -0.14181368,  0.12411225,  -0.0009838783,  -0.06533764,  0.086826816,  0.13792121,  -0.019305142,  -0.055493698,  -0.053841226,  0.16744924,  -0.03306863,  -0.1473513,  -0.04765451,  -0.0138864815,  0.19985302,  0.067175135,  -0.26252759,  0.01940029,  0.121681966,  0.05326654,  0.18047403,  -0.016136788,  0.18408966,  0.12506163,  -0.041693695,  0.012197443,  -0.06540801,  0.13396437,  -0.031233909,  -0.012867022,  -0.041237403,  -0.0022144532,  -0.078956194,  -0.055311173,  -0.036350176,  0.03274854,  -0.046003927,  -0.044936802,  -0.060013838,  0.037516344,  -0.02438632,  0.051477518,  0.022217838,  0.04220806,  0.019160679,  -0.051766623,  -0.055052433,  0.08287651,  -0.000995835,  0.013194643,  0.07028433,  -0.0061976174,  -0.07402112,  0.10543855,  0.098347746,  0.049955837,  0.15017484,  -0.16786566,  -0.12705667,  -0.09833721,  0.22262017,  -0.076170914,  0.22693306,  -0.34064105,  -0.34804776,  -0.022341093,  0.03600976,  -0.121738076,  0.056253508,  0.1206724,  -0.001965065,  0.19262142,  -0.004431273,  -0.13701044,  -0.19729961,  -0.108388595,  0.0064217946,  0.10868451,  0.12586887,  0.0095227985,  0.058742464,  0.07617939,  0.06281122,  -0.021502845,  0.011067553,  -0.14472215,  -0.021775575,  0.31133828,  -0.038043514,  0.037713513,  -0.14583418,  -0.20228113,  0.077192664,  0.11966436,  -0.12110472,  -0.028895933,  -0.010689538,  -0.12361036,  -0.12467419,  0.08046767,  -0.21841544,  0.0016699038,  0.11282078,  -0.11501245,  0.02325097,  -0.09561962,  0.22801922,  -0.0029459812,  0.065267906,  -0.1087272,  -0.0546334,  -0.12611534,  -0.07624747,  0.14638446,  0.16587831,  -0.11371247,  0.07957557,  0.1717071,  -0.14916599,  0.15500407,  -0.1719143,  0.09933198,  0.027453478,  0.16553804,  -0.25645566,  0.08319828,  0.0936821,  0.11566851,  0.28551716,  -0.09779844,  0.0022699393,  -0.037647996,  0.10345278,  0.11703396,  -0.14390415,  0.16653797,  -0.043185126,  0.22395225,  0.12915893,  0.043005005,  -0.1121416,  0.07900106,  0.0379886,  0.009702479,  0.030781811,  -0.08996971,  -0.10726187,  -0.14888236,  -0.16274692,  -0.1449317,  0.09201448,  -0.0344696,  0.037376545,  -0.11661492,  0.05393071,  -0.18080881,  0.004136488,  -0.14788435,  0.050658796,  -0.034576144,  -0.06935087,  0.059144925,  -0.047999192,  -0.05693683,  -0.000761338,  0.050540797,  0.099400766,  -0.05444928,  0.07204067,  0.21254899,  -0.10367684,  0.014122044,  -0.10641071,  -0.0123795,  -0.0132554425,  -0.008187095,  -0.02236064,  0.018901017,  -0.08230515,  -0.02153812,  -0.016704248,  0.14782956,  0.022668576,  -0.08214212,  0.025991304,  0.0785928,  0.09545887,  0.17789322,  -0.017328942,  0.053059205,  0.18063346,  -0.048765168,  0.052830704,  0.03570114,  0.03053201,  -0.008919933,  -0.05384346,  -0.05577386,  0.13823986,  -0.0706371,  -0.17169139,  -0.15268593,  -0.013165185,  -0.044763997,  0.025628189,  -0.04847143,  0.039307922,  -0.010288059,  0.19317652,  0.0035151222,  0.030095723,  0.08445985,  0.057758983,  0.04182096,  -0.014194317,  -0.15513118,  -0.06079601,  -0.10858466,  0.06604472,  0.082365245,  0.071727246,  -0.057467125,  0.014021735,  0.085708745,  -0.17764044,  0.030826002,  0.06858394,  -0.20688947,  -0.07195556,  0.06729658,  -0.102791,  0.12994559,  -0.0068217404,  -0.04263921,  -0.009102303,  0.0860062,  -0.09179456,  -0.051233802,  -0.030435974,  -0.047530003,  -0.10774198,  0.014977659,  0.08516002,  0.079327725,  -0.049104296,  0.006791933,  0.09665315,  -0.01815207,  -0.034127142,  -0.110818215,  0.12978318,  -0.094719164,  -0.050534233,  0.080343105,  -0.029403346,  0.22117062,  0.12303857,  -0.08426303,  -0.031250987,  -0.08899449,  0.017418094,  0.05641816,  -0.11779131,  -0.24850515,  0.10109366,  -0.00021335576,  0.16458707,  0.07518776,  -0.14184366,  -0.056686312,  -0.028207405,  0.19881698,  0.112579525,  0.20467986,  -0.19068003,  -0.14000538,  -0.09168447,  -0.10312215,  0.04514327,  -0.098760486,  -0.016133402,  0.14225982,  -0.014062311,  -0.1028717,  -0.035981778,  -0.013184123,  -0.048642173,  -0.0053606057,  -0.12412887,  -0.156637,  -0.15436228,  0.1274367,  0.024369234,  0.15694597,  0.028019534,  -0.14958487,  0.15132529,  -0.026164647,  -0.095093444,  0.18668288,  -0.1404681,  0.0860157,  0.10446464,  0.07716858,  0.29840523,  0.16653517,  -0.16692004,  0.047242243,  -0.151995,  -0.15359665,  0.22425066,  0.005598992,  -0.17129008,  0.14055552,  0.11488987,  0.07167396,  -0.026545368,  -0.088767625,  -0.011663177,  0.13512589,  0.22498891,  -0.09941288,  0.16826269,  -0.12453236,  -0.21010733,  0.25065345,  0.07799306,  -0.17226797,  -0.021048259,  0.21936074,  0.10179119,  -0.15812312,  0.12510185,  0.035528034,  -0.02237739,  -0.15751237,  0.14217958,  -0.091163844,  -0.07809482,  0.053852323,  0.10491187,  0.09118722,  -0.112400256,  0.006382828,  -0.1793593,  0.14553961,  0.1757951,  0.07033998,  0.012928908,  0.07444065,  0.21036226,  -0.11075708,  -0.017020594,  -0.09229442,  0.05736698,  -0.070337534,  -0.007035977,  -0.0839032,  -0.18591227,  -0.07435568,  0.017504836,  -0.066457756,  -0.09475369,  0.07004382,  -0.07439652,  0.123853214,  0.13632894,  -0.023031062,  0.26601902,  0.025095837,  0.28234217,  0.10119906,  -0.12250478,  0.16835731,  0.058481295,  0.16396928,  -0.25456235,  0.0046386668,  0.04300959,  0.034046125,  0.091725364,  0.2840653,  0.08905035,  0.050430477,  0.06680239,  0.051960085,  -0.26317447,  -0.07169847,  -0.085858524,  0.06830035,  -0.0659067,  0.0003296972,  0.04427025,  -0.021412691,  -0.09148392,  -0.090223856,  -0.064031266,  -0.13012402,  0.047780614,  0.03724561,  -0.18167011,  -0.058782984,  0.03936118,  -0.03638189,  0.07522655,  0.22599004,  -0.02596115,  0.12121106,  -0.014676228,  -0.047297686,  0.25272134,  0.16344507,  0.26516172,  0.012184376,  -0.20298742,  0.049163286,  0.13818341,  0.05473007,  0.21567684,  0.049405634,  -0.012256709,  -0.013525887,  0.03910754,  0.06456147,  0.08605412,  0.15123342,  0.18809056,  0.053508304,  0.081532344,  0.0057179304,  0.17128703,  0.31594515,  -0.1177443,  -0.166574,  -0.020887844,  0.07723057,  0.33018807,  -0.09985839,  -0.393442,  0.08333119,  -0.08182701,  0.07084673,  -0.11875103,  0.14693037,  -0.27500352,  -0.15980795,  -0.040101368,  0.040436167,  0.1115358,  0.12397159,  0.11298586,  0.1143543,  -0.009250965,  0.05626434,  0.13218287,  0.16009697,  -0.24129915,  0.11656022,  0.10959016,  -0.04689072,  0.22982186,  0.08470741,  -0.02015091,  -0.11686793,  0.24237102,  -0.23707005,  0.093323484,  -0.15118718,  0.09016586,  -0.07777921,  -0.028927926,  0.06769161,  0.13675828,  -0.071697205,  -0.09847258,  -0.043439265,  -0.14974427,  -0.15765913,  -0.24571699,  -0.1792429,  0.13955502,  0.0024662358,  -0.01773176,  -0.06042377,  0.078689225,  -0.08993792,  0.086876616,  0.08532882,  -0.08953717,  -0.08124546,  0.0637595,  -0.007061146,  -0.1795908,  0.23952241,  -0.12789841,  -0.026082734,  -0.11342744,  -0.1930283,  -0.22122659,  0.16574322,  0.106649876,  -0.13261789,  0.025702467,  0.08158573,  -0.12258338,  0.074314274,  0.08315663,  0.12261865,  0.09338021,  -0.04462442,  -0.027443875,  0.019429825,  0.1287549,  -0.05925715,  -0.0903357,  -0.033335686,  -0.12602955,  0.012320339,  -0.21293919,  0.08557011,  0.02250202,  -0.024031965,  0.06949192,  -0.042308643,  -0.026208714,  -0.09237463,  0.090994515,  0.008172269,  0.01495522,  -0.121196285,  0.18104619,  0.087015525,  -0.033095952,  -0.17354862,  0.12594685,  0.06170711,  -0.025302066,  0.07094467,  -0.09485855,  0.11321393,  -0.07522012,  0.02609064,  -0.045546636,  -0.10946267,  0.16198298,  -0.10896587,  0.03257933,  0.022844456,  0.02074854,  0.09186486,  -0.047593854,  0.23073237,  -0.22037901,  -0.10307982,  -0.01430136,  0.049477108,  -0.04978714,  0.10463781,  0.052941058,  0.20424254,  -0.24836184,  0.05496316,  -0.11314241,  0.0013102457,  0.16941632,  0.070265576,  -0.041516546,  0.086591125,  -0.06742719,  0.0030042236,  0.11826239,  0.011075745,  -0.29156712,  -0.055337433,  0.19852042,  -0.15578583,  -0.20716219,  0.0057027517,  0.16142872,  -0.05290239,  0.18324916,  0.06207113,  0.11122188,  -0.043252297,  0.013588463,  0.049094312,  -0.16831136,  0.09573311,  0.011975893,  0.12983315,  0.18671118,  0.033964597,  0.22511758,  0.051900752,  -0.03572001,  0.120625675,  -0.18699592,  0.20344694,  -0.14729926,  0.06231068,  -0.06460015,  0.0017520183,  -0.021995433,  -0.07991959,  -0.08467081,  0.1638166,  0.10860943,  0.06973992,  -0.016092226,  0.074272886,  -0.2193103,  0.031808317,  -0.017360486,  -0.111848526,  -0.13916689,  -0.26590037,  -0.118736446,  0.050159436,  0.10176872,  -0.0037659511,  0.045849435,  0.06026453,  0.032061767,  -0.036937907,  0.13099244,  -0.10175123,  0.17264427,  -0.062443282,  0.14974838,  -0.103020556,  0.040643618,  0.1495383,  -0.0034671198,  0.009343071,  -0.08199368,  -0.2774417,  -0.12489469,  -0.023092002,  0.16033906,  0.017994083,  0.0731777,  -0.036100034,  -0.12740335,  0.034199186,  0.0828228,  0.068530604,  0.08165578,  -0.12911534,  -0.07718736,  0.057819895,  0.060608122,  -0.01341811,  -0.074430875,  0.04059567,  0.22771898,  -0.066738844,  0.034923196,  0.072785944,  0.20541345,  0.056372378,  0.016629728,  -0.09724518,  -0.0035197004,  0.1526092,  -0.0048229676,  0.39677963,  0.06874973,  0.051652044,  0.04918145,  0.10980469,  0.11064857,  0.044624668,  -0.09650489,  -0.17024857,  0.05999458,  -0.07846728,  0.040315833,  0.044905335,  0.11499197,  -0.23531602,  -0.20821038,  -0.095345065,  0.021877486,  -0.1469073,  -0.13393527,  0.08287345,  0.16364878,  -0.26588407,  0.15550266,  0.041921277,  0.28624472,  0.018863587,  -0.005899613,  -0.22509845,  -0.016344786,  -0.00669758,  0.26443836,  -0.09594018,  0.13397631,  0.10755267,  0.04056856,  -0.15097769,  0.23196256,  -0.0076849256,  -0.2932461,  0.15374067,  -0.04468669,  0.07552163,  0.08712452,  -0.028677206,  0.13650277,  0.05540583,  0.055554267,  -0.056061447,  -0.010554728,  0.25981784,  -0.0013049514,  0.073349625,  0.037778173,  0.03825107,  0.16092148,  0.13927609,  0.00868447,  -0.08675724,  -0.07512275,  -0.1260164,  -0.053226594,  -0.17635407,  -0.025505709,  -0.3030902,  -0.01930374,  -0.08947677,  -0.08416437,  -0.058059584,  0.14552832,  0.10256231,  -0.05307913,  0.16299878,  0.044413693,  0.045702733,  -0.24891217,  0.015387161,  -0.09184201,  0.11060694,  -0.057198822,  0.10416827,  0.016873583,  0.06573809,  0.2004616,  -0.0033960668,  0.052071556,  -0.004802149,  0.13374907,  -0.1838029,  -0.06412133,  0.09558935,  0.13702837,  0.15656775,  0.07477524,  0.04980381,  -0.13331054,  -0.29489625,  0.003536441,  -0.08875541,  -0.017239733,  0.10963054,  0.1431279,  -0.112923324,  0.036848746,  0.086321905,  0.0003651718,  0.0031412535,  0.040983424,  0.14090931,  -0.061980236,  -0.06710636,  0.115432076,  0.061573636,  -0.12892267,  -0.054737724,  0.020889856,  -0.09879623,  0.017024685,  -0.028610835,  0.094881296,  0.08776467,  0.1344662,  -0.10429209,  -0.049885035,  0.27707636,  -0.03479076,  -0.0660022,  -0.20222922,  0.26877725,  0.14726026,  0.09331647,  -0.048058063,  0.05822627,  -0.079670966,  0.09288357,  0.24179807,  -0.055897236,  -0.0060851397,  0.115165465,  0.03074257,  0.10222213,  -0.00779716,  0.03398785,  0.004050581,  0.011726926,  -0.029618248,  0.04138828,  0.06701442,  0.042299196,  0.06014165,  0.01093671,  0.11099757,  -0.1960657,  -0.22313271,  -0.02025946,  -0.0027093063,  0.108362064,  0.06870378,  -0.16449362,  0.24199,  0.0060363426,  -0.037271626,  -0.05821661,  0.0035025345,  0.0028942397,  -0.095325194,  -0.057083406,  0.010174848,  -0.12550905,  0.13459653,  -0.13404092,  0.16095841,  0.030249594,  -0.18724187,  0.09648006,  0.007934646,  0.0053733047,  -0.034136586,  0.07336594,  -0.1481041,  0.015820395,  0.24413826,  -0.0624831,  -0.036382172,  -0.03563581,  -0.07554897,  0.07969164,  0.05352196,  0.09186423,  -0.023911014,  0.16261438,  0.14776796,  0.029520331,  -0.07822912,  -0.15589193,  -0.0317371,  0.083175905,  -0.15873086,  -0.0066206926,  0.07866171,  0.04527564,  -0.07234739,  -0.042712532,  -0.14183284,  0.051377345,  0.04812484,  0.07562545,  -0.026048828,  0.11939274,  0.11688729,  -0.018363293,  0.10635121,  0.11375541,  -0.02332611,  -0.12704037,  -0.095911264,  0.011182484,  -0.0073967045,  0.03200991,  -0.0042299996,  0.1859678,  -0.20717773,  0.42472365,  -0.03493987,  -0.20559789,  -0.12517583,  0.13109548,  0.07696153,  0.023572085,  0.10353573,  -0.03807728,  0.0014163635,  -0.036692403,  -0.081381686,  0.07873251,  0.1284623,  -0.14212902,  -0.11258715,  0.34982076,  -0.24577631,  -0.039401866,  0.055810902,  0.07804424,  0.054729585,  0.1599821,  -0.058697477,  0.036690783,  0.04042734,  0.116042465,  0.015999049,  -0.15449521,  0.043819968,  0.07668882,  -0.08120094,  -0.005583702,  0.11594818,  -0.04377443,  0.08777019,  -0.046616208,  0.08260785,  0.028527921,  0.09418534,  -0.032517575,  -0.0065584807,  0.11937505,  0.05200228,  0.11063569,  0.11773641,  -0.16855627,  0.10706884,  0.16225128,  0.08665455,  -0.021646677,  -0.048998352,  -0.15576443,  -0.12912402,  0.12700757,  0.013366379,  -0.055969324,  -0.078604646,  0.009842857,  -0.33163178,  0.25349137,  0.046834387,  -0.061072033,  -0.03699919,  -0.09885982,  -0.114473954,  0.30522823,  -0.15705429,  -0.0680293,  -0.14287664,  -0.14223237,  -0.099015325,  -0.1857987,  0.08741665,  -0.0034175715,  -0.05935114,  0.1657025,  -0.095258415,  0.01891268,  0.28999612,  -0.15218964,  -0.015974898,  0.04808831,  -0.010446159,  -0.19637127,  0.057948656,  -0.16354439,  0.08027812,  -0.095943965,  0.0131633,  -0.028630901,  0.15535167,  0.16613807,  0.016951337,  0.0285591,  -0.0719601,  0.021907173,  -0.06594548,  0.24682018,  0.021122323,  0.28630814,  0.20616321,  -0.12669504,  0.22492577,  0.1458736,  -0.20773515,  -0.07410303,  -0.21522738,  -0.034958668,  -0.17226115,  -0.054792747,  -0.046479996,  -0.25882897,  0.04107988,  -0.14414832,  -0.043522723,  -0.08456762,  -0.04769277,  -0.19351974,  0.1968936,  0.10600929,  -0.07414023,  -0.011739649,  0.054733306,  -0.13280803,  -0.041491307,  -0.1436427,  0.2145111,  -0.092107356,  0.20274675,  0.08254425,  -0.041270707,  0.043968566,  0.041187227,  0.062625624,  0.2915572,  -0.104140066,  -0.015681334,  0.081496045,  0.05250638,  0.087565616,  0.06777503,  -0.00062801543,  -0.03281022,  -0.14165431,  -0.018827477,  0.006528068,  -0.019870406,  0.047440503,  -0.10778819,  -0.090809576,  0.15273121,  0.21983162,  -0.14688383,  -0.0441241,  0.05218488,  -0.01188379,  0.009333216,  -0.17328657,  0.27510953,  0.11469954,  0.016800847,  0.013670167,  0.08711743,  0.046967063,  0.05038197,  0.012093219,  -0.06901517,  0.00825713,  -0.10319418,  -0.042612627,  -0.04342561,  -0.025372248,  0.02576691,  0.011716092,  -0.06530397,  0.03368973,  -0.021680411,  0.031547677,  0.053458765,  -0.0019565749,  -0.0048395745,  -0.0217941,  0.057984404,  0.04366359,  -0.06287097,  -0.055237874,  0.009140782,  0.0046125934,  0.014551654,  0.07410888,  0.012429426,  0.17553481,  -0.025707157,  -0.12812993,  0.0034255115,  0.14985345,  0.18347354,  -0.16265695,  0.21483532,  -0.24425143,  -0.3177611,  0.15878165,  0.07107317,  -0.05485011,  -0.051334515,  0.041571222,  0.011123653,  -0.006130035,  0.015767721,  -0.14365937,  -0.13166656,  -0.044202365,  -0.06332591,  0.10148394,  0.0824042,  -0.13556266,  0.08084858,  -0.10757067,  -0.0128040435,  0.00064208737,  -0.07664023,  0.011264827,  -0.05139183,  0.455099,  -0.0063164174,  -0.024073996,  -0.070055045,  -0.23637645,  0.070703216,  0.07272804,  -0.23219508,  -0.040749248,  0.079569876,  0.01722952,  -0.07446765,  0.036015846,  -0.25448653,  0.07089866,  0.050077826,  0.00684861,  0.019133043,  -0.01423587,  0.1664542,  -0.0009599793,  0.1581966,  -0.07202892,  -0.01190738,  -0.12338461,  -0.13323835,  0.07441703,  0.16092944,  -0.07568958,  0.07856824,  0.23878577,  -0.01163959,  0.19771749,  -0.14289196,  -0.23731096,  -0.058645684,  -0.018089883,  -0.08561843,  0.16208865,  0.25883013,  0.023121804,  0.11785118,  -0.052705176,  0.06040162,  -0.002886197,  0.11884084,  0.0064440756,  -0.050978128,  0.060607463,  -0.065767124,  0.18616495,  -0.047524456,  -0.007004475,  -0.12347909,  0.16477658,  0.013129236,  0.18311033,  -0.21672054,  0.1722596,  -0.05542808,  -0.026432939,  -0.046847194,  0.0137241995,  0.06450236,  0.0557303,  0.039126486,  -0.10840507,  0.045189947,  -0.20104425,  -0.048547644,  0.062373415,  0.048680615,  -0.012673438,  0.11369416,  0.06574837,  -0.024525836,  -0.084539615,  0.1261189,  -0.021038543,  0.06565322,  -0.009438627,  -0.007372549,  0.18254185,  -0.2067411,  -0.10497364,  -0.15831716,  0.0121779945,  -0.09538623,  -0.07453049,  -0.03301118,  0.09865183,  -0.12758522,  0.014342705,  -0.13428831,  0.04821794,  -0.07259374,  -0.21142785,  -0.058073293,  0.031085107,  -0.038849242,  0.071578085,  0.08860901,  -0.017200015,  -0.04826433,  0.064688414,  -0.076589465,  -0.10834233,  0.0093272105,  0.0017856932,  -0.085749194,  -0.07187776,  0.097765036,  -0.24274482,  -0.103241004,  -0.104075104,  -0.09242876,  0.04716555,  0.033662435,  -0.019171748,  -0.052260693,  -0.011890955,  0.09587125,  -0.022503559,  0.08348789,  0.12347138,  0.24038565,  -0.09357394,  0.04579305,  0.0031351899,  -0.049882796,  -0.17308064,  0.21142998,  0.044368424,  -0.109425165,  -0.07864098,  0.09255345,  0.06426213,  -0.017569168,  0.122167245,  0.049114555,  -0.14923708,  0.04635979,  -0.029205501,  -0.07941543,  -0.064264216,  0.2039499,  0.025287732,  -0.008500105,  0.065261535,  -0.11813107,  -0.045493595,  0.061371822,  0.101015374,  0.019129468,  -0.12634474,  0.15126139,  0.0119462535,  0.03929642,  0.032913506,  0.08154051,  0.006476475,  -0.13150576,  -0.114698075,  0.194897,  -0.1348728,  -0.025774121,  0.15690427,  0.17557338,  0.1891321,  0.10297181,  -0.053057916,  -0.008356675,  -0.1597874,  -0.032490432,  0.02467961,  -0.062299594,  -0.0944059,  0.05048786,  -0.009403685,  0.040539447,  -0.087561436,  -0.13529378,  -0.14960882,  -0.031706158,  -0.018049937,  -0.16027145,  0.11486223,  -0.029291254,  -0.14319593,  -0.14175306,  0.007181828,  -0.09531869,  -0.047560513,  0.031052403,  0.026750257,  0.034695525,  0.04467941,  -0.036713343,  -0.0029063716,  0.14026393,  -0.09940716,  -0.13478696,  0.058405172,  -0.10733564,  0.03835562,  0.08528403,  0.08405208,  -0.112596765,  -0.14446236,  0.13079488,  -0.031948067,  -0.090979815,  0.07508706,  -0.11106016,  -0.08370692,  -0.0022786688,  -0.09943165,  0.03246382,  0.009540855,  0.008985174,  -0.010350908,  -0.20655662,  -0.10849816,  0.11932603,  0.026770517,  -0.07639912,  -0.08056921,  0.024077175,  0.02138007,  -0.0051807114,  -0.16932224,  0.030739814,  0.039322305,  0.04722426,  -0.04120934,  0.22309601,  -0.15995719,  -0.038158514,  0.12633413,  0.05173048,  -0.082231626,  0.0060232515,  0.14869326,  0.09573598,  -0.006151612,  0.0671255,  0.030315384,  -0.031579994,  -0.02774214,  -0.023541212,  -0.025300868,  0.062484697,  0.059377063,  0.111745715,  -0.0035131103,  -0.18290862,  -0.11916455,  0.14880742,  0.10532849,  0.019865029,  0.24372222,  0.071303956,  0.05163717,  0.13015984,  -0.028329259,  -0.018238252,  -0.06692985,  0.14284527,  -0.041397266,  0.16936076,  -0.0039998633,  -0.05563812,  0.10070468,  0.07441868,  -0.13349395,  -0.13899086,  0.007637775,  0.009488231,  0.19597405,  0.08372708,  -0.12438487,  0.06641343,  -0.11207309,  0.23180234,  0.06949631,  -0.21325654,  0.071606316,  0.0012625841,  0.061500765,  -0.28804466,  -0.3684893,  -0.050606243,  0.07736757,  0.086323574,  0.29141074,  0.077984735,  0.004657819,  0.049433216,  0.080311574,  -0.113020964,  0.08247522,  0.0089018,  0.17479675,  -0.15531936,  0.12639286,  0.15251328,  -0.1304316,  0.04819518,  -0.016869731,  0.102456756,  -0.17259704,  0.15684189,  0.2778611,  -0.15234514,  0.0040427702,  -0.006952191,  -0.09151589,  0.0862132,  0.025637064,  0.01022397,  -0.021311006,  -0.15772471,  -0.07711001,  0.16291696,  0.14505292,  -0.075743616,  0.13952786,  -0.11153777,  -0.13888371,  0.09849623,  0.02332133,  0.082657136,  0.15207098,  0.12723786,  -0.12169365,  0.22060867,  0.01552933,  0.024574315,  0.15416174,  -0.013651926,  0.0052651432,  -0.07822446,  0.10114907,  0.102658615,  0.19939218,  0.0090464465,  -0.17836775,  0.13338293,  -0.007649844,  0.14871868,  -0.18905221,  -0.38983563,  0.06642942,  -0.044582766,  0.14433506,  -0.18377078,  0.056329414,  -0.111100644,  -0.121624604,  -0.0010353085,  0.053826932,  0.12216926,  0.021226298,  0.05514649,  -0.0809908,  -0.0044681183,  0.0071002073,  0.08433842,  0.08812303,  -0.16753756,  0.1016891,  0.047339614,  0.09607546,  -0.028256752,  0.13058539,  -0.1910528,  -0.16928259,  0.11228312,  -0.01813958,  0.048206694,  0.018491952,  -0.063934185,  -0.0538498,  0.16357811,  0.18851188,  0.13643427,  -0.071719505,  0.042043436,  -0.062228635,  0.05652385,  -0.10276079,  -0.16917218,  -0.13150501,  0.102086484,  0.03747151,  -0.07392037,  0.05576063,  -0.051895235,  -0.15312284,  0.10378937,  -0.0005709144,  -0.022401502,  0.09494474,  0.10838852,  0.078072235,  -0.029142274,  0.16583179,  -0.12690923,  -0.0068917833,  -0.08419389,  -0.19878079,  -0.32404482,  0.2848547,  0.16886039,  -0.2128705,  0.041059725,  0.03605796,  -0.080527194,  -0.031023007,  -0.04300733,  0.13586277,  0.0110326465,  -0.08510362,  -0.0193921,  -0.039695073,  0.061863057,  -0.098359525,  -0.094015196,  -0.26028052,  -0.055027932,  0.024630656,  -0.084173776,  0.06936704,  -0.12160594,  -0.055104543,  0.1393914,  -0.056623712,  0.10118086,  0.03803179,  -0.0055038477,  0.04047735,  -0.12771444,  -0.07166919,  0.058333058,  0.16210583,  -0.05871556,  -0.06849604,  -0.04999484,  0.11681754,  -0.12467355,  -0.1904638,  -0.00010033505,  0.1072363,  -0.14075539,  -0.030993536,  -0.0044428525,  -0.20988432,  0.14330217,  -0.07872942,  0.020712934,  0.03558987,  0.05865071,  0.163841,  -0.118617915,  0.25814295,  -0.12723331,  -0.17452678,  0.024395555,  0.0049107317,  0.07563983,  -0.004347013,  0.10873783,  0.25149822,  -0.009897607,  0.109137565,  0.02293145,  -0.04463703,  0.22808324,  0.016161276,  -0.042383097,  0.17649372,  -0.19463262,  -0.10966328,  0.0452006,  0.034728866,  -0.1942694,  0.13832839,  0.20807463,  -0.19239452,  -0.09466843,  0.04918243,  0.20432627,  -0.0349261,  0.1656499,  -0.002095549,  0.20557655,  0.08569746,  0.038315643,  0.030330751,  -0.2031194,  -0.048045374,  0.04947799,  0.20639567,  -0.009637878,  0.035285223,  0.20896019,  0.04310178,  -0.2033597,  0.23366202,  -0.09747386,  0.026604833,  -0.1260343,  0.058098823,  0.1109455,  -0.059565894,  -0.011655103,  -0.084034026,  -0.16734757,  0.05105351,  0.06615925,  0.09526569,  -0.07607842,  -0.091637,  -0.10530759,  0.16544212,  -0.010213986,  -0.21309423,  -0.13244314,  -0.17199066,  -0.105744846,  0.10475563,  0.013522678,  0.12843072,  -0.13277748,  0.12497712,  0.05336985,  -0.075979486,  0.10874443,  0.06990604,  0.07586583,  -0.08993251,  0.032177225,  -0.079005755,  0.01025102,  0.033964366,  -0.030741772,  -0.08784945,  -0.10897291,  -0.19585596,  0.015675016,  0.08719735,  0.062770166,  0.14690755,  -0.019030927,  -0.104029626,  -0.11585336,  -0.09934039,  0.041450333,  -0.02645953,  0.02103579,  -0.04195414,  -0.22910342,  0.068591155,  -0.10867521,  0.057733566,  0.030713065,  0.04028313,  0.23528773,  -0.078686714,  0.13023178,  0.012192085,  0.2133352,  -0.026080528,  0.031332675,  -0.15517333,  -0.040961463,  0.21320325,  -0.042485017,  0.37194228,  -0.024744038,  -0.08985981,  -0.12074672,  -0.05060216,  0.017267058,  0.11205539,  -0.24271847,  -0.2223897,  0.07849329,  -0.23127255,  0.15889251,  -0.028085882,  0.18485135,  -0.046014857,  -0.112219326,  -0.107571125,  -0.19048566,  -0.052348945,  -0.08226889,  0.005052396,  0.1837968,  -0.2090172,  0.044945166,  0.022258481,  0.12925223,  -0.010984544,  -0.1316941,  -0.1972068,  0.11392768,  0.15696469,  0.12364799,  0.08995431,  0.0614759,  -0.019711431,  0.13026835,  -0.047401447,  0.1282177,  0.034729403,  -0.21306868,  0.08752434,  -0.03156488,  0.115648784,  0.008325764,  0.12341516,  0.11325529,  0.012842769,  -0.0533031,  0.094985634,  -0.11650747,  0.2016817,  -0.16817436,  0.060432024,  0.027590143,  -0.105137736,  0.2598146,  -0.016390305,  0.07499595,  -0.033196483,  -0.1558117,  -0.09921972,  -0.06473996,  -0.37641323,  -0.0125510255,  -0.23898004,  -0.0031482219,  0.016161922,  -0.08432165,  0.009768019,  -0.033394374,  0.11565145,  -0.073687755,  0.09432324,  -0.18221834,  0.007835884,  -0.06501843,  -0.09116758,  -0.06215847,  -0.0010181551,  -0.01780868,  -0.07018302,  0.03838823,  -0.010064205,  0.12283061,  0.017145237,  0.024415884,  0.030160291,  0.13793044,  -0.2397509,  0.030465553,  0.1540088,  0.23435548,  -0.0887085,  0.08148567,  -0.019964825,  -0.060373124,  -0.09327169,  0.0036387865,  0.11762101,  0.06036462,  0.1741929,  0.09546944,  -0.097673446,  0.0027198847,  0.056816794,  -0.020512883,  -0.06253429,  0.1239881,  -0.051706575,  0.037393752,  0.029003505,  0.051101293,  -0.021244828,  -0.06589238,  -0.09480714,  0.017557757,  -0.09889683,  0.0025632503,  0.05257263,  -0.07683537,  0.06253239,  0.08332932,  -0.027726214,  -0.0132550625,  0.19928183,  0.067327246,  0.046599217,  -0.16689283,  0.13036929,  -0.06763615,  0.06599339,  0.085939236,  0.07544211,  0.11271334,  -0.046762843,  0.21842857,  -0.108546145,  0.06425556,  0.08598669,  0.14128542,  0.0051521817,  -0.19773991,  0.09906153,  -0.03143141,  0.016185861,  -0.046105158,  0.048086587,  0.024612889,  -0.013332808,  -0.06001326,  -0.09474869,  -0.0051022354,  0.010277189,  -0.1386171,  0.20133004,  -0.035489667,  0.11772762,  -0.07591561,  -0.1737315,  0.1604943,  -0.03434068,  0.08898881,  -0.084327385,  0.07135747,  -0.09880926,  -0.06019172,  -0.08560211,  0.061955005,  -0.029603086,  0.06154144,  -0.109138206,  0.14338946,  0.03608637,  -0.027929975,  0.027918134,  -0.059883256,  0.028147167,  0.032048207,  0.04091853,  -0.110605836,  0.032524474,  0.15712442,  -0.021351827,  0.058238726,  -0.1090303,  0.04901955,  0.028997678,  0.038724285,  -0.16136241,  -0.12725034,  -0.020781912,  0.15022498,  -0.11481584,  -0.049088344,  -0.25021225,  -0.09375993,  -0.15792689,  -0.31973547,  -0.045637984,  0.21539007,  -0.18816015,  0.09761106,  -0.018324593,  -0.07049206,  -0.017043334,  -0.055597972,  0.15530206,  0.1306147,  0.12161188,  0.1325537,  -0.035936292,  0.25347862,  0.15621795,  -0.106524326,  -0.08034823,  -0.11871893,  0.0577485,  -0.087915294,  -0.063927494,  -0.10359535,  0.09229262,  -0.17338395,  0.25521702,  -0.03273087,  -0.2133239,  0.100563444,  0.22160779,  -0.043803837,  0.005887612,  0.0886654,  0.075446464,  0.049064863,  0.0085658785,  -0.15541413,  -0.020729728,  0.11683211,  -0.18436363,  -0.16603054,  0.17211354,  -0.07764385,  0.025597695,  0.06311305,  -0.013151439,  -0.04036713,  0.17671534,  -0.03381132,  0.107005864,  -0.06948686,  0.008615599,  0.03735147,  -0.052950025,  -0.08995899,  0.010419449,  0.08399964,  -0.031363286,  0.07315413,  -0.07950947,  -0.014425507,  -0.122853994,  0.19241136,  0.028612558,  -0.1830347,  -0.018607466,  -0.004747314,  0.077779844,  0.00066616246,  0.15760641,  0.051487617,  -0.1658437,  -0.088909805,  0.13058057,  0.11510039,  -0.081327274,  0.0065752603,  -0.17550617,  -0.28350377,  0.08366249,  -0.12337358,  -0.020214882,  -0.0769033,  0.031254403,  -0.2636046,  0.067921385,  0.052906558,  -0.06514354,  0.17800614,  -0.047042876,  -0.038646,  0.28840253,  -0.12546694,  -0.038549572,  -0.0012083747,  0.019015446,  -0.06663558,  -0.05944423,  0.13796267,  0.005621157,  0.07631221,  0.1738067,  -0.100466,  0.010343505,  0.20198222,  -0.064154744,  0.024622254,  0.059275784,  -0.026834013,  -0.05947243,  0.18069007,  -0.06537994,  0.12827523,  -0.13999657,  0.12700154,  -0.18847288,  0.12903504,  0.12578002,  0.14086421,  -0.06341075,  -0.2063418,  0.23668492,  -0.11318892,  0.2222788,  -0.10706976,  0.09745282,  0.061471235,  0.093321495,  0.19670224,  0.00162945,  -0.22857575,  -0.1136193,  -0.012516818,  0.040294986,  -0.12233875,  -0.042587835,  -0.123306684,  -0.25633314,  0.10778508,  -0.10152217,  0.035301775,  -0.11508269,  0.0314216,  -0.12388238,  0.1536248,  0.24286453,  -0.053911917,  0.08821044,  -0.050048955,  -0.20676893,  -0.06120766,  0.008504191,  0.23019463,  -0.14369729,  0.13918836,  0.033619292,  -0.052312862,  -0.049481403,  -0.24549988,  0.06140611,  0.32462367,  0.041266747,  0.056945913,  0.060390867,  -0.032500304,  0.19420026,  0.28745878,  0.12394793,  -0.087700196,  -0.15332755,  0.03764617,  0.1571286,  0.006199019,  0.12007632,  -0.08850446,  0.20882796,  0.047738288,  -0.019219331,  0.012330859,  0.10501485,  -0.087471224,  -0.062197693,  -0.0730982,  -0.12975985,  0.053425174,  -0.06707422,  -0.039641794,  0.035847127,  0.040773686,  0.010672733,  -0.09456028,  0.06597208,  -0.030435968,  0.0023183557,  -0.1062692,  0.07276582,  0.015164698,  0.10581352,  -0.03876407,  0.07978115,  -0.00013043504,  0.11856688,  -0.008437287,  -0.029703313,  -0.07126121,  0.025252312,  -0.059814923,  0.09142041,  0.024724538,  0.047213525,  -0.0035403448,  0.016527213,  0.0443532,  0.027545374,  0.02725734,  -0.015494447,  0.07201325,  0.05960555,  0.11048529,  -0.05486043,  0.0028666651,  0.17556138,  0.053915355,  -0.21867512,  0.1728927,  -0.07502927,  -0.13800195,  0.09454305,  -0.024437752,  -0.031441472,  0.105304204,  0.24691118,  -0.08616057,  0.1348777,  -0.05064857,  -0.019878887,  -0.105848186,  0.08470907,  -0.12187478,  0.068511516,  0.019417943,  -0.17430277,  -0.040987805,  -0.06336294,  -0.08382791,  0.078120306,  0.02270085,  -0.06269939,  0.011547743,  0.39291412,  -0.013165034,  -0.16152234,  -0.14308058,  -0.1994204,  0.14570968,  0.14301036,  -0.20006624,  -0.1310639,  0.09833039,  0.08037161,  -0.07238845,  0.11337493,  -0.06921064,  -0.03422411,  0.043961156,  -0.008475395,  -0.113362536,  -0.056121495,  0.21673343,  0.1008308,  0.11750514,  -0.019126447,  0.078841515,  -0.11994582,  -0.19389364,  0.16616844,  0.09748988,  -0.13749716,  0.13241214,  0.17863208,  -0.093629815,  0.25666034,  0.07501957,  -0.23112464,  0.040451143,  0.17447214,  -0.08795821,  0.11533259,  0.19303443,  -0.093692966,  0.0878151,  -0.01709765,  -0.11046177,  -0.11471428,  0.15443616,  -0.0815357,  -0.18686274,  0.073418535,  0.16731197,  0.04218445,  -0.03574866,  0.107350096,  -0.15608664,  0.11694717,  0.2358664,  0.12523474,  -0.23835155,  0.053332403,  -0.08818899,  -0.08393953,  -0.0404492,  0.09851554,  -0.007463839,  0.036491536,  -0.003941966,  -0.1334341,  0.044276066,  -0.19392657,  0.040858738,  0.21941112,  0.054296676,  0.078942575,  0.1337543,  0.1883463,  -0.03356475,  -0.071175285,  0.16795507,  0.06272619,  0.022639558,  0.020254517,  0.1701585,  0.18784721,  -0.07059628,  0.030620936,  -0.03145339,  -0.008201579,  -0.1412923,  -0.08262995,  -0.022588741,  0.2634009,  -0.080604896,  -0.009395856,  0.021272376,  -0.09754345,  -0.16049764,  -0.20455045,  -0.016874876,  0.04488442,  -0.05840115,  -0.0037455233,  0.102051765,  0.049816996,  -0.16317669,  0.026463881,  -0.16463272,  -0.10192431,  -0.03954298,  0.010087194,  -0.061380997,  -0.057727035,  0.2488351,  -0.2801878,  -0.15380514,  -0.11279155,  0.07628519,  -0.07907613,  0.049374655,  -0.22093382,  -0.058170572,  0.013575723,  0.12020204,  -0.009527834,  0.051289704,  -0.004117453,  0.16631396,  -0.014512875,  0.11688182,  -0.05413032,  -0.0051207077,  -0.17153296,  0.12923157,  -0.0009946048,  0.10614349,  -0.097969495,  0.038915105,  0.0072598737,  -0.008375857,  0.02951244,  0.03584424,  -0.18284604,  -0.09372282,  -0.14078242,  -0.08595203,  -0.0044605494,  -0.05816811,  -0.17765485,  -0.059598062,  0.10253588,  -0.025407169,  0.016151732,  -0.07207417,  0.064271964,  -0.005311798,  0.06678242,  0.09000637,  0.022115303,  0.063669644,  -0.08415217,  -0.0662346,  0.13502681,  -0.038243726,  -0.1712233,  0.12382863,  -0.017424636,  0.046686705,  0.100011215,  0.031209707,  0.017684,  0.0362235,  -0.054744277,  -0.04681029,  -0.19295871,  0.009296678,  -0.08374817,  -0.16423754,  -0.11103544,  0.06123498,  0.0384379,  0.0697616,  -0.07261738,  -0.05300956,  -0.10038372,  -0.14056423,  -0.039145067,  -0.1887792,  0.06577671,  -0.058264107,  -0.12691489,  -0.092888124,  -0.1448974,  0.02328991,  0.030772384,  0.16845345,  0.004997895,  0.15959552,  